0.000000000000000000e+00 0.000000000000000000e+00 0.000000000000000000e+00 0.000000000000000000e+00 0.000000000000000000e+00 0.000000000000000000e+00 0.000000000000000000e+00 0.000000000000000000e+00 0.000000000000000000e+00 0.000000000000000000e+00 0.000000000000000000e+00 0.000000000000000000e+00 0.000000000000000000e+00 0.000000000000000000e+00 0.000000000000000000e+00 0.000000000000000000e+00 0.000000000000000000e+00 0.000000000000000000e+00 0.000000000000000000e+00 0.000000000000000000e+00 0.000000000000000000e+00 0.000000000000000000e+00 0.000000000000000000e+00 0.000000000000000000e+00 0.000000000000000000e+00 0.000000000000000000e+00 0.000000000000000000e+00 0.000000000000000000e+00 0.000000000000000000e+00 0.000000000000000000e+00 0.000000000000000000e+00 0.000000000000000000e+00 0.000000000000000000e+00 0.000000000000000000e+00 0.000000000000000000e+00 0.000000000000000000e+00 0.000000000000000000e+00 0.000000000000000000e+00 0.000000000000000000e+00 0.000000000000000000e+00 0.000000000000000000e+00 0.000000000000000000e+00 0.000000000000000000e+00 0.000000000000000000e+00 0.000000000000000000e+00 0.000000000000000000e+00 0.000000000000000000e+00 0.000000000000000000e+00 0.000000000000000000e+00 0.000000000000000000e+00 0.000000000000000000e+00 0.000000000000000000e+00 0.000000000000000000e+00 0.000000000000000000e+00 0.000000000000000000e+00 0.000000000000000000e+00 0.000000000000000000e+00 0.000000000000000000e+00 0.000000000000000000e+00 0.000000000000000000e+00 0.000000000000000000e+00 0.000000000000000000e+00 0.000000000000000000e+00 0.000000000000000000e+00 0.000000000000000000e+00 0.000000000000000000e+00 0.000000000000000000e+00 0.000000000000000000e+00 0.000000000000000000e+00 0.000000000000000000e+00 0.000000000000000000e+00 0.000000000000000000e+00 0.000000000000000000e+00 0.000000000000000000e+00 0.000000000000000000e+00 0.000000000000000000e+00 0.000000000000000000e+00 0.000000000000000000e+00 0.000000000000000000e+00 0.000000000000000000e+00 0.000000000000000000e+00 0.000000000000000000e+00 0.000000000000000000e+00 0.000000000000000000e+00 0.000000000000000000e+00 0.000000000000000000e+00 0.000000000000000000e+00 0.000000000000000000e+00 0.000000000000000000e+00 0.000000000000000000e+00 0.000000000000000000e+00 0.000000000000000000e+00 0.000000000000000000e+00 0.000000000000000000e+00 0.000000000000000000e+00 0.000000000000000000e+00 0.000000000000000000e+00 0.000000000000000000e+00 0.000000000000000000e+00 0.000000000000000000e+00 0.000000000000000000e+00 0.000000000000000000e+00 0.000000000000000000e+00 0.000000000000000000e+00 0.000000000000000000e+00 0.000000000000000000e+00 0.000000000000000000e+00 0.000000000000000000e+00 0.000000000000000000e+00 0.000000000000000000e+00 0.000000000000000000e+00 0.000000000000000000e+00 0.000000000000000000e+00 0.000000000000000000e+00 0.000000000000000000e+00 0.000000000000000000e+00 0.000000000000000000e+00 0.000000000000000000e+00 0.000000000000000000e+00 0.000000000000000000e+00 0.000000000000000000e+00 0.000000000000000000e+00 0.000000000000000000e+00 0.000000000000000000e+00 0.000000000000000000e+00 0.000000000000000000e+00 0.000000000000000000e+00 0.000000000000000000e+00 0.000000000000000000e+00 0.000000000000000000e+00 0.000000000000000000e+00 0.000000000000000000e+00 0.000000000000000000e+00 0.000000000000000000e+00 0.000000000000000000e+00 0.000000000000000000e+00 0.000000000000000000e+00 0.000000000000000000e+00 0.000000000000000000e+00 0.000000000000000000e+00 0.000000000000000000e+00 0.000000000000000000e+00 0.000000000000000000e+00 0.000000000000000000e+00 0.000000000000000000e+00 0.000000000000000000e+00 0.000000000000000000e+00 0.000000000000000000e+00 0.000000000000000000e+00 0.000000000000000000e+00 0.000000000000000000e+00 0.000000000000000000e+00 0.000000000000000000e+00 0.000000000000000000e+00 0.000000000000000000e+00 0.000000000000000000e+00 0.000000000000000000e+00 0.000000000000000000e+00 0.000000000000000000e+00 0.000000000000000000e+00 0.000000000000000000e+00 0.000000000000000000e+00 0.000000000000000000e+00 0.000000000000000000e+00 0.000000000000000000e+00 0.000000000000000000e+00 0.000000000000000000e+00 0.000000000000000000e+00 0.000000000000000000e+00 0.000000000000000000e+00 0.000000000000000000e+00 0.000000000000000000e+00 0.000000000000000000e+00 0.000000000000000000e+00 0.000000000000000000e+00 0.000000000000000000e+00 0.000000000000000000e+00 0.000000000000000000e+00 0.000000000000000000e+00 0.000000000000000000e+00 0.000000000000000000e+00 0.000000000000000000e+00 0.000000000000000000e+00 0.000000000000000000e+00 0.000000000000000000e+00 0.000000000000000000e+00 0.000000000000000000e+00 0.000000000000000000e+00 0.000000000000000000e+00 0.000000000000000000e+00 0.000000000000000000e+00 0.000000000000000000e+00 0.000000000000000000e+00 0.000000000000000000e+00 0.000000000000000000e+00 0.000000000000000000e+00 0.000000000000000000e+00 0.000000000000000000e+00 0.000000000000000000e+00 0.000000000000000000e+00
0.000000000000000000e+00 0.000000000000000000e+00 0.000000000000000000e+00 0.000000000000000000e+00 0.000000000000000000e+00 0.000000000000000000e+00 0.000000000000000000e+00 0.000000000000000000e+00 0.000000000000000000e+00 0.000000000000000000e+00 0.000000000000000000e+00 0.000000000000000000e+00 0.000000000000000000e+00 0.000000000000000000e+00 0.000000000000000000e+00 0.000000000000000000e+00 0.000000000000000000e+00 0.000000000000000000e+00 0.000000000000000000e+00 0.000000000000000000e+00 0.000000000000000000e+00 0.000000000000000000e+00 0.000000000000000000e+00 0.000000000000000000e+00 0.000000000000000000e+00 0.000000000000000000e+00 0.000000000000000000e+00 0.000000000000000000e+00 0.000000000000000000e+00 0.000000000000000000e+00 0.000000000000000000e+00 0.000000000000000000e+00 0.000000000000000000e+00 0.000000000000000000e+00 0.000000000000000000e+00 0.000000000000000000e+00 0.000000000000000000e+00 0.000000000000000000e+00 0.000000000000000000e+00 0.000000000000000000e+00 0.000000000000000000e+00 0.000000000000000000e+00 0.000000000000000000e+00 0.000000000000000000e+00 0.000000000000000000e+00 0.000000000000000000e+00 0.000000000000000000e+00 0.000000000000000000e+00 0.000000000000000000e+00 0.000000000000000000e+00 0.000000000000000000e+00 0.000000000000000000e+00 0.000000000000000000e+00 0.000000000000000000e+00 0.000000000000000000e+00 0.000000000000000000e+00 0.000000000000000000e+00 0.000000000000000000e+00 0.000000000000000000e+00 0.000000000000000000e+00 0.000000000000000000e+00 0.000000000000000000e+00 0.000000000000000000e+00 0.000000000000000000e+00 0.000000000000000000e+00 0.000000000000000000e+00 0.000000000000000000e+00 0.000000000000000000e+00 0.000000000000000000e+00 0.000000000000000000e+00 0.000000000000000000e+00 0.000000000000000000e+00 0.000000000000000000e+00 0.000000000000000000e+00 0.000000000000000000e+00 0.000000000000000000e+00 0.000000000000000000e+00 0.000000000000000000e+00 0.000000000000000000e+00 0.000000000000000000e+00 0.000000000000000000e+00 0.000000000000000000e+00 0.000000000000000000e+00 0.000000000000000000e+00 0.000000000000000000e+00 0.000000000000000000e+00 0.000000000000000000e+00 0.000000000000000000e+00 0.000000000000000000e+00 0.000000000000000000e+00 0.000000000000000000e+00 0.000000000000000000e+00 0.000000000000000000e+00 0.000000000000000000e+00 0.000000000000000000e+00 0.000000000000000000e+00 0.000000000000000000e+00 0.000000000000000000e+00 0.000000000000000000e+00 0.000000000000000000e+00 0.000000000000000000e+00 0.000000000000000000e+00 0.000000000000000000e+00 0.000000000000000000e+00 0.000000000000000000e+00 0.000000000000000000e+00 0.000000000000000000e+00 0.000000000000000000e+00 0.000000000000000000e+00 0.000000000000000000e+00 0.000000000000000000e+00 0.000000000000000000e+00 0.000000000000000000e+00 0.000000000000000000e+00 0.000000000000000000e+00 0.000000000000000000e+00 0.000000000000000000e+00 0.000000000000000000e+00 0.000000000000000000e+00 0.000000000000000000e+00 0.000000000000000000e+00 0.000000000000000000e+00 0.000000000000000000e+00 0.000000000000000000e+00 0.000000000000000000e+00 0.000000000000000000e+00 0.000000000000000000e+00 0.000000000000000000e+00 0.000000000000000000e+00 0.000000000000000000e+00 0.000000000000000000e+00 0.000000000000000000e+00 0.000000000000000000e+00 0.000000000000000000e+00 0.000000000000000000e+00 0.000000000000000000e+00 0.000000000000000000e+00 0.000000000000000000e+00 0.000000000000000000e+00 0.000000000000000000e+00 0.000000000000000000e+00 0.000000000000000000e+00 0.000000000000000000e+00 0.000000000000000000e+00 0.000000000000000000e+00 0.000000000000000000e+00 0.000000000000000000e+00 0.000000000000000000e+00 0.000000000000000000e+00 0.000000000000000000e+00 0.000000000000000000e+00 0.000000000000000000e+00 0.000000000000000000e+00 0.000000000000000000e+00 0.000000000000000000e+00 0.000000000000000000e+00 0.000000000000000000e+00 0.000000000000000000e+00 0.000000000000000000e+00 0.000000000000000000e+00 0.000000000000000000e+00 0.000000000000000000e+00 0.000000000000000000e+00 0.000000000000000000e+00 0.000000000000000000e+00 0.000000000000000000e+00 0.000000000000000000e+00 0.000000000000000000e+00 0.000000000000000000e+00 0.000000000000000000e+00 0.000000000000000000e+00 0.000000000000000000e+00 0.000000000000000000e+00 0.000000000000000000e+00 0.000000000000000000e+00 0.000000000000000000e+00 0.000000000000000000e+00 0.000000000000000000e+00 0.000000000000000000e+00 0.000000000000000000e+00 0.000000000000000000e+00 0.000000000000000000e+00 0.000000000000000000e+00 0.000000000000000000e+00 0.000000000000000000e+00 0.000000000000000000e+00 0.000000000000000000e+00 0.000000000000000000e+00 0.000000000000000000e+00 0.000000000000000000e+00 0.000000000000000000e+00 0.000000000000000000e+00 0.000000000000000000e+00 0.000000000000000000e+00 0.000000000000000000e+00 0.000000000000000000e+00 0.000000000000000000e+00 0.000000000000000000e+00 0.000000000000000000e+00 0.000000000000000000e+00
-7.524744868278503418e-01 -1.337945103645324707e+00 1.409849405288696289e+00 -1.601822674274444580e-01 -2.383946478366851807e-01 -6.749121099710464478e-02 4.758897721767425537e-01 5.212038010358810425e-02 -3.308341503143310547e-01 -8.552342057228088379e-01 2.044963598251342773e+00 4.328754544258117676e-01 1.256380796432495117e+00 5.539211630821228027e-01 -1.624353170394897461e+00 1.195125341415405273e+00 -1.438872218132019043e+00 -4.198415875434875488e-01 -5.226975679397583008e-01 -8.582236170768737793e-01 -2.801142334938049316e-01 6.939894556999206543e-01 -1.762776672840118408e-01 3.518922328948974609e-01 -1.529282212257385254e+00 -1.618861079216003418e+00 1.320874691009521484e+00 4.973980188369750977e-01 1.552166104316711426e+00 -7.985507845878601074e-01 7.549964189529418945e-01 -4.587763845920562744e-01 1.746949315071105957e+00 -7.799227833747863770e-01 2.457026243209838867e+00 -5.916224718093872070e-01 6.484638452529907227e-01 1.025597572326660156e+00 -2.948175370693206787e-02 1.342790961265563965e+00 -1.818131357431411743e-01 -1.017470583319664001e-01 -2.059468746185302734e+00 -1.277097225189208984e+00 -4.020713269710540771e-01 -5.984618067741394043e-01 8.271167874336242676e-01 -2.574240922927856445e+00 -3.809530138969421387e-01 -1.080855846405029297e+00 -3.870676159858703613e-01 1.591311573982238770e+00 9.301565885543823242e-01 -1.188597202301025391e+00 -2.526317119598388672e+00 4.599912837147712708e-02 1.706921815872192383e+00 1.860076069831848145e+00 -3.016608655452728271e-01 4.417549371719360352e-01 5.248318314552307129e-01 -2.901532948017120361e-01 4.537822306156158447e-01 -2.730936408042907715e-01 1.605947256088256836e+00 1.329392790794372559e+00 -6.277330517768859863e-01 4.475228488445281982e-01 8.149319291114807129e-01 1.706891894340515137e+00 3.488950431346893311e-01 -1.482539176940917969e+00 -2.440141439437866211e-01 -7.049754858016967773e-01 1.507300853729248047e+00 -7.916721105575561523e-01 2.107004165649414062e+00 4.482239484786987305e-01 1.323870539665222168e+00 3.835481107234954834e-01 1.997505903244018555e+00 -3.212441802024841309e-01 -5.919288396835327148e-01 -2.109270095825195312e-01 -1.786215066909790039e+00 -2.394553422927856445e-01 5.529439449310302734e-01 -4.368213713169097900e-01 -4.914383292198181152e-01 1.126142978668212891e+00 -1.176040545105934143e-01 -1.145874038338661194e-01 -1.052315235137939453e+00 1.414437890052795410e-01 1.056653380393981934e+00 6.041363999247550964e-02 6.288135051727294922e-01 9.847316741943359375e-01 9.683377742767333984e-01 1.459302544593811035e+00 1.894133329391479492e+00 -1.120976328849792480e+00 7.483862638473510742e-01 6.087862253189086914e-01 8.594147562980651855e-01 2.088085889816284180e+00 2.311444759368896484e+00 2.222972810268402100e-01 8.110932111740112305e-01 9.987232089042663574e-01 -1.364764571189880371e-01 3.978068530559539795e-01 -8.611965924501419067e-02 -3.799407556653022766e-02 -1.040989995002746582e+00 1.342450380325317383e+00 -1.619804382324218750e+00 1.408528566360473633e+00 -4.116919040679931641e-01 2.953125908970832825e-02 -1.980661392211914062e+00 3.556508719921112061e-01 5.187706947326660156e-01 -9.898268580436706543e-01 5.360118150711059570e-01 3.389390707015991211e-01 -2.259872436523437500e+00 1.653398036956787109e+00 1.067862033843994141e+00 -4.150043800473213196e-02 1.552025675773620605e+00 7.708705067634582520e-01 4.014449417591094971e-01 6.205534934997558594e-01 5.410076975822448730e-01 7.205767035484313965e-01 2.152922630310058594e+00 -8.715239763259887695e-01 5.221176147460937500e-01 -4.815092682838439941e-01 -1.442924980074167252e-02 1.507073938846588135e-01 4.141618311405181885e-01 1.295750141143798828e-01 -1.585174947977066040e-01 -9.809738397598266602e-01 -2.327486753463745117e+00 8.012821078300476074e-01 -1.379849910736083984e+00 9.747140854597091675e-02 1.048512935638427734e+00 2.395229578018188477e+00 -9.446877837181091309e-01 3.567183390259742737e-02 1.821324586868286133e+00 -3.339578211307525635e-01 -9.710265398025512695e-01 1.214682579040527344e+00 -2.876705825328826904e-01 -7.654417157173156738e-01 -1.454407572746276855e-01 -6.979821920394897461e-01 -1.625677198171615601e-01 -2.659070968627929688e+00 2.050890624523162842e-01 -1.265510678291320801e+00 -8.520691096782684326e-02 -6.811054944992065430e-01 9.126266837120056152e-01 6.477108001708984375e-01 -2.050595521926879883e+00 -8.794360160827636719e-01 -8.532017469406127930e-01 8.112258315086364746e-01 -3.241771161556243896e-01 -1.482537984848022461e+00 -1.155803054571151733e-01 -7.407327890396118164e-01 6.931685656309127808e-02 6.603949069976806641e-01 -6.185340881347656250e-01 -4.137719869613647461e-01 -1.010252118110656738e+00 -9.630784392356872559e-02 1.458195745944976807e-01 1.623252987861633301e+00 -7.342665642499923706e-02 -3.341481387615203857e-01 6.542415022850036621e-01 -1.287928223609924316e+00 -1.038374379277229309e-01 4.041166901588439941e-01 -4.760177135467529297e-01 4.629664123058319092e-01 1.254884004592895508e+00 -3.453325629234313965e-01 3.570805788040161133e-01 -8.016300797462463379e-01 2.957622528076171875e+00 -2.041736841201782227e+00
-1.095464080572128296e-01 -1.956109702587127686e-01 8.255019783973693848e-01 1.287799626588821411e-01 -5.784879922866821289e-01 -3.834402859210968018e-01 7.772120833396911621e-02 8.130415678024291992e-01 6.197955012321472168e-01 7.408879697322845459e-03 -3.193504512310028076e-01 2.003367803990840912e-02 6.817531585693359375e-01 3.470716476440429688e-01 -4.229536056518554688e-01 1.720463484525680542e-01 -1.132294386625289917e-01 7.074113935232162476e-02 5.106953382492065430e-01 -4.735252261161804199e-01 1.706496775150299072e-01 -2.127848863601684570e-01 1.414832025766372681e-01 5.269656702876091003e-02 -4.030405282974243164e-01 -7.924465537071228027e-01 1.058193072676658630e-01 8.606717586517333984e-01 -5.510193854570388794e-02 -2.251124233007431030e-01 2.617254853248596191e-01 1.513414382934570312e-01 1.038868874311447144e-01 -2.700961232185363770e-01 -2.878778278827667236e-01 -3.441983088850975037e-02 -3.369569480419158936e-01 3.564712107181549072e-01 -9.612262994050979614e-02 3.530203700065612793e-01 -2.050727754831314087e-01 -1.884226351976394653e-01 1.443255990743637085e-01 -5.961465835571289062e-01 -3.713103234767913818e-01 -6.498052477836608887e-01 -8.912271261215209961e-01 1.325001567602157593e-01 -1.044866219162940979e-01 4.169928729534149170e-01 3.963369429111480713e-01 -4.699479043483734131e-01 7.994694113731384277e-01 -3.327857255935668945e-01 3.435948193073272705e-01 3.212949931621551514e-01 2.379320263862609863e-01 3.977461457252502441e-01 -2.358578443527221680e-01 1.506601721048355103e-01 -5.859825015068054199e-01 -4.415418207645416260e-01 2.137391567230224609e-01 -1.918401271104812622e-01 6.278613805770874023e-01 -2.452552765607833862e-01 -4.242943525314331055e-01 -8.510251045227050781e-01 -7.052158117294311523e-01 -6.202018260955810547e-02 2.784042991697788239e-02 -4.926206469535827637e-01 -4.174270927906036377e-01 -1.797758787870407104e-01 5.410780310630798340e-01 2.797870039939880371e-01 -6.182489991188049316e-01 9.235174953937530518e-02 3.078140914440155029e-01 3.295261859893798828e-01 2.713560163974761963e-01 3.683848381042480469e-01 1.983305513858795166e-01 -1.016027092933654785e+00 2.957460880279541016e-01 8.245667070150375366e-02 -3.871096670627593994e-01 6.925456225872039795e-02 -5.732848048210144043e-01 -1.412034183740615845e-01 -4.482917487621307373e-01 -5.239540934562683105e-01 -3.700670227408409119e-02 -3.837574720382690430e-01 -1.943656355142593384e-01 -4.530449211597442627e-01 -1.701374724507331848e-02 -6.138433218002319336e-01 1.501309871673583984e-01 8.697292804718017578e-01 1.633829623460769653e-01 1.284522861242294312e-01 6.588812470436096191e-01 -6.310124397277832031e-01 5.287442207336425781e-01 -1.446267962455749512e-01 1.696512401103973389e-01 -3.424535691738128662e-01 -7.737895473837852478e-03 -2.652694582939147949e-01 -1.197299957275390625e-01 4.320575594902038574e-01 6.289402842521667480e-01 3.628995120525360107e-01 3.299257755279541016e-01 5.017286539077758789e-01 -4.934856891632080078e-01 2.610103189945220947e-01 -1.696034669876098633e-01 6.267313361167907715e-01 -3.150543570518493652e-02 1.263403296470642090e-01 -3.875495791435241699e-01 4.633306264877319336e-01 -5.838649868965148926e-01 3.916115164756774902e-01 -5.164825320243835449e-01 2.221173606812953949e-03 -4.427476227283477783e-01 -2.578712105751037598e-01 2.678704559803009033e-01 -1.967595070600509644e-01 3.455454707145690918e-01 -3.214233517646789551e-01 2.829228639602661133e-01 -7.942517399787902832e-01 -3.297809660434722900e-01 1.313536614179611206e-01 5.939080119132995605e-01 3.845179378986358643e-01 5.514716506004333496e-01 6.916319131851196289e-01 1.641364991664886475e-01 8.033733367919921875e-01 -2.768184542655944824e-01 -3.011726438999176025e-01 1.944468766450881958e-01 -3.739503771066665649e-02 -1.167417615652084351e-01 2.133258581161499023e-01 -3.351898789405822754e-01 -2.000766098499298096e-01 2.405141890048980713e-01 2.271943986415863037e-01 2.706639170646667480e-01 -8.646590635180473328e-03 -2.424443811178207397e-01 -5.073802471160888672e-01 5.999446511268615723e-01 -1.196753978729248047e-01 -9.468283057212829590e-01 -8.935335278511047363e-01 4.204328656196594238e-01 -8.394701778888702393e-02 -1.942908614873886108e-01 -1.126329675316810608e-01 -1.612091660499572754e-01 -5.172377824783325195e-01 -7.215585559606552124e-02 2.350790649652481079e-01 -5.184780955314636230e-01 2.686523795127868652e-01 -1.602002605795860291e-02 2.112039029598236084e-01 5.462506040930747986e-02 9.718065261840820312e-01 -1.360560059547424316e-01 1.770263165235519409e-01 -6.680008172988891602e-01 4.701017737388610840e-01 -5.139828920364379883e-01 3.249294161796569824e-01 -3.799309432506561279e-01 -3.725202977657318115e-01 9.595587849617004395e-02 -3.526131063699722290e-02 -4.456608295440673828e-01 -7.242190837860107422e-01 2.082190662622451782e-01 -2.353759407997131348e-01 -7.272160053253173828e-02 5.598216056823730469e-01 7.575837969779968262e-01 -2.475070804357528687e-01 -4.369748234748840332e-01 -1.588679254055023193e-01 -3.436691313982009888e-02 -2.242279052734375000e-01 -5.364665985107421875e-01 -5.080539584159851074e-01
4.433769583702087402e-01 3.306789696216583252e-01 4.231849685311317444e-03 9.941820800304412842e-02 2.492216229438781738e-01 -1.548342108726501465e+00 7.179064750671386719e-01 4.461975395679473877e-01 2.634171545505523682e-01 -7.557755112648010254e-01 1.673022508621215820e+00 1.550693154335021973e+00 4.179150760173797607e-01 2.365334630012512207e-01 3.370172977447509766e-01 -5.054975748062133789e-01 5.848394036293029785e-01 8.601783514022827148e-01 -8.320465087890625000e-01 -1.121391415596008301e+00 -6.356561779975891113e-01 7.585592102259397507e-03 7.700865864753723145e-01 -1.516850143671035767e-01 -4.968071579933166504e-01 -4.592460095882415771e-01 1.326916575431823730e+00 -2.057629078626632690e-02 -1.498493645340204239e-02 3.628622293472290039e-01 -3.842313587665557861e-01 -4.827228486537933350e-01 2.059897594153881073e-02 -4.342361092567443848e-01 8.086249977350234985e-02 9.751738905906677246e-01 3.984194695949554443e-01 -3.120740177109837532e-03 -1.050324458628892899e-02 6.396950781345367432e-02 -8.580279946327209473e-01 -7.100741863250732422e-01 4.087024629116058350e-01 -9.054130315780639648e-01 4.879229515790939331e-02 -5.760211944580078125e-01 3.259400427341461182e-01 -3.111276328563690186e-01 -4.609415531158447266e-01 -1.073029041290283203e+00 7.887253761291503906e-01 3.698410689830780029e-01 3.721957802772521973e-01 -6.615945100784301758e-01 -1.279331803321838379e+00 3.166258335113525391e-01 -1.971401870250701904e-01 8.608918637037277222e-02 4.686365723609924316e-01 -2.639466226100921631e-01 2.844084203243255615e-01 -3.091046512126922607e-01 -6.353047490119934082e-01 -3.965938985347747803e-01 -1.063731592148542404e-02 5.109215527772903442e-02 -4.813946485519409180e-01 -8.882087469100952148e-02 5.221212506294250488e-01 1.578819900751113892e-01 7.106786966323852539e-02 -1.073345541954040527e+00 -1.145272016525268555e+00 -4.888314604759216309e-01 -3.678106237202882767e-03 -9.764592647552490234e-01 -2.421510592103004456e-02 -3.761163651943206787e-01 -1.999748498201370239e-01 -8.955466151237487793e-01 3.630227148532867432e-01 -9.486312270164489746e-01 -4.294654428958892822e-01 -1.369463801383972168e+00 -1.744072318077087402e+00 1.507404744625091553e-01 6.949235200881958008e-01 6.051035523414611816e-01 -3.813293278217315674e-01 9.760044813156127930e-01 -3.975150585174560547e-01 -5.147086381912231445e-01 -2.349319756031036377e-01 3.037158250808715820e-01 7.490664720535278320e-02 3.929057717323303223e-01 7.262583374977111816e-01 2.040012776851654053e-01 7.260763645172119141e-02 -4.941408038139343262e-01 6.786170601844787598e-01 -1.148249655961990356e-01 9.862703084945678711e-01 -1.410723030567169189e-01 1.505355089902877808e-01 2.669651806354522705e-01 -1.870198361575603485e-02 -4.393796026706695557e-01 5.979940891265869141e-01 -5.019096136093139648e-01 7.662593126296997070e-01 4.650255143642425537e-01 -6.154108643531799316e-01 -2.431432604789733887e-01 -3.504104018211364746e-01 1.442107558250427246e-01 -1.387260437011718750e+00 2.932091355323791504e-01 -5.222191214561462402e-01 -4.214670658111572266e-01 -3.838609671220183372e-03 2.552312016487121582e-01 -1.114350184798240662e-01 -8.957899212837219238e-01 -2.531076073646545410e-01 2.048537880182266235e-01 -4.278251230716705322e-01 4.832362234592437744e-01 1.813915520906448364e-01 5.814376473426818848e-02 1.052359864115715027e-01 1.848092824220657349e-01 -1.838828325271606445e-01 6.878498196601867676e-01 5.436778664588928223e-01 1.469140201807022095e-01 6.224243044853210449e-01 -1.333388328552246094e+00 1.624901294708251953e-01 -7.052881717681884766e-01 8.928925730288028717e-03 -9.547002613544464111e-02 1.875777728855609894e-02 -8.980865031480789185e-02 -4.885306954383850098e-01 2.484499365091323853e-01 -7.590727806091308594e-01 -1.444257497787475586e+00 -8.777061104774475098e-02 -4.356826841831207275e-01 -4.396482557058334351e-02 5.160560607910156250e-01 2.919627130031585693e-01 1.784535795450210571e-01 6.854313015937805176e-01 -7.413775324821472168e-01 -3.417879045009613037e-01 6.537029743194580078e-01 -5.030810236930847168e-01 -1.450291156768798828e+00 -5.963746905326843262e-01 -6.250137090682983398e-01 6.528363376855850220e-02 -7.465231418609619141e-01 2.630198895931243896e-01 -1.822654455900192261e-01 7.265706658363342285e-01 -7.446869015693664551e-01 3.288398087024688721e-01 1.224567834287881851e-02 -9.850895404815673828e-01 -3.788052871823310852e-02 -1.006414741277694702e-02 -6.785780191421508789e-02 3.774198889732360840e-01 -2.634148001670837402e-01 -1.739302039146423340e+00 -4.227779433131217957e-02 -6.153663247823715210e-02 1.067616343498229980e-01 2.270737849175930023e-02 -4.136453568935394287e-01 1.194456517696380615e-01 5.589589476585388184e-01 -8.371891379356384277e-01 1.136767745018005371e+00 -9.095620512962341309e-01 1.383879780769348145e-01 -2.097043544054031372e-01 2.374416589736938477e-01 -6.616472601890563965e-01 -6.205282360315322876e-02 1.793991923332214355e+00 7.531474232673645020e-01 -3.938920795917510986e-01 -2.397221773862838745e-01 2.936302125453948975e-01 -1.207270026206970215e+00 -5.895726084709167480e-01 -8.665028810501098633e-01
-1.048982739448547363e+00 -7.721716761589050293e-01 7.009764313697814941e-01 1.252300739288330078e+00 -1.096832513809204102e+00 8.590595722198486328e-01 1.432217001914978027e+00 1.609641432762145996e+00 5.615539550781250000e-01 6.542733311653137207e-02 -1.163463070988655090e-01 6.502066850662231445e-01 -1.808909296989440918e+00 2.813865661621093750e+00 -2.281870692968368530e-01 1.270097732543945312e+00 -9.021882414817810059e-01 -4.739785194396972656e-01 2.442826181650161743e-01 -7.256509065628051758e-01 -1.182182908058166504e+00 -2.441926956176757812e+00 -2.682511568069458008e+00 -2.028139114379882812e+00 -9.650356769561767578e-01 -1.434530496597290039e+00 -1.531807929277420044e-01 3.386348485946655273e+00 -9.259049296379089355e-01 -1.662735819816589355e+00 -3.055921196937561035e-01 2.277682781219482422e+00 -2.007269412279129028e-01 7.224499583244323730e-01 1.104380488395690918e-01 -1.804872155189514160e+00 2.720479965209960938e-01 -8.085025846958160400e-02 6.131939291954040527e-01 -5.287148058414459229e-02 -3.060361385345458984e+00 1.561283230781555176e+00 1.440347433090209961e+00 -5.457955598831176758e-01 1.162785291671752930e+00 -1.247128725051879883e+00 1.802984476089477539e+00 -6.637245416641235352e-01 -1.122998714447021484e+00 1.319108247756958008e+00 -3.714793026447296143e-01 -1.986597299575805664e+00 2.961029291152954102e+00 -2.470226734876632690e-01 8.559816479682922363e-01 -1.447056680917739868e-01 1.051210761070251465e+00 7.415364384651184082e-01 -1.770899534225463867e+00 2.642175912857055664e+00 9.387444257736206055e-01 -1.135137602686882019e-01 -3.624506950378417969e+00 1.032341480255126953e+00 -1.453656196594238281e+00 -7.877320051193237305e-01 2.301870584487915039e+00 1.700465559959411621e+00 5.599843263626098633e-01 1.372204661369323730e+00 3.687414228916168213e-01 1.616577982902526855e+00 -7.337628602981567383e-01 -4.603395462036132812e-01 1.219298839569091797e+00 -9.686399698257446289e-01 -1.015524148941040039e+00 -1.767013430595397949e+00 4.685724079608917236e-01 -2.360490322113037109e+00 6.679080128669738770e-01 -1.198944300413131714e-01 2.226899623870849609e+00 7.884166240692138672e-01 -5.425576567649841309e-01 2.024946361780166626e-01 1.271725535392761230e+00 -9.800120592117309570e-01 -2.738816440105438232e-01 2.208892345428466797e+00 1.794940948486328125e+00 -4.848529696464538574e-01 -5.762733817100524902e-01 -6.535249948501586914e-01 -1.453417420387268066e+00 -3.789478540420532227e-01 -1.061897873878479004e+00 6.552262604236602783e-02 1.848863959312438965e+00 2.716845273971557617e+00 5.952327251434326172e-01 -1.546049356460571289e+00 2.590728282928466797e+00 -1.771938204765319824e+00 1.432824015617370605e+00 1.252663969993591309e+00 6.085717305541038513e-02 -2.556946277618408203e+00 8.000661134719848633e-01 -6.606844663619995117e-01 1.086200952529907227e+00 -2.419981718063354492e+00 1.203706145286560059e+00 4.396499991416931152e-01 5.815013051033020020e-01 5.069345235824584961e-01 -1.361794352531433105e+00 -1.082839608192443848e+00 -1.225583031773567200e-01 -2.336502820253372192e-01 1.604181766510009766e+00 -6.535612344741821289e-01 -1.117831945419311523e+00 4.276505708694458008e-01 -1.713010549545288086e+00 -6.592818498611450195e-01 -2.084734849631786346e-02 2.134546339511871338e-01 1.566588878631591797e+00 1.733496427536010742e+00 1.444618463516235352e+00 -9.609242677688598633e-01 6.650217175483703613e-01 1.545608401298522949e+00 2.820894718170166016e+00 1.630830168724060059e+00 7.113913297653198242e-01 -6.845918893814086914e-01 -1.504542231559753418e-01 1.014691948890686035e+00 9.584276676177978516e-01 3.159604966640472412e-01 8.978047370910644531e-01 -2.853473834693431854e-02 -1.592002809047698975e-01 -2.737710952758789062e+00 -1.001269459724426270e+00 5.388588309288024902e-01 3.855344057083129883e-01 -1.508032679557800293e+00 -1.728268861770629883e+00 1.597051143646240234e+00 -7.579285502433776855e-01 3.800911903381347656e-01 -1.016386389732360840e+00 1.037279367446899414e-01 1.639568209648132324e+00 7.183998823165893555e-01 3.901135325431823730e-01 -5.726618170738220215e-01 2.027985334396362305e+00 -1.322495579719543457e+00 7.519416213035583496e-01 4.117384910583496094e+00 -6.995247006416320801e-01 -3.708046674728393555e-01 -8.887992799282073975e-02 2.210201740264892578e+00 3.061938524246215820e+00 3.358552694320678711e+00 1.903305500745773315e-01 -2.616718530654907227e+00 -1.619674265384674072e-01 8.263195753097534180e-01 -3.136865496635437012e-01 -9.815329313278198242e-01 -1.845454096794128418e+00 2.425288259983062744e-01 1.194024801254272461e+00 2.004590749740600586e+00 -1.276587486267089844e+00 6.006006002426147461e-01 1.671321153640747070e+00 2.764586448669433594e+00 -2.952983081340789795e-01 1.620174288749694824e+00 5.602385401725769043e-01 -5.840719938278198242e-01 1.637769937515258789e+00 1.552282571792602539e+00 1.848237872123718262e+00 4.056365489959716797e-01 -1.751897573471069336e+00 2.090219974517822266e+00 -3.616101741790771484e-01 -8.916596770286560059e-01 -2.748127698898315430e+00 9.623662829399108887e-01 1.003530621528625488e+00 1.021697163581848145e+00
1.362079083919525146e-01 -2.814250886440277100e-01 -4.866997301578521729e-01 -1.508686065673828125e+00 3.860892951488494873e-01 -4.082808792591094971e-01 -7.661989331245422363e-01 1.543641209602355957e+00 6.233716011047363281e-01 5.602363944053649902e-01 3.068425357341766357e-01 1.901329517364501953e+00 -2.853676974773406982e-01 1.600664615631103516e+00 1.847898811101913452e-01 1.016958355903625488e+00 8.384744822978973389e-02 1.269334077835083008e+00 4.535346329212188721e-01 -1.554766297340393066e+00 2.745657861232757568e-01 5.716243386268615723e-01 2.904594540596008301e-01 2.054194927215576172e+00 -7.879546880722045898e-01 2.883110642433166504e-01 1.649929583072662354e-01 9.606047272682189941e-01 -6.814618408679962158e-02 -1.991141438484191895e+00 7.199915051460266113e-01 -7.937196642160415649e-02 9.010915756225585938e-01 6.506738662719726562e-01 8.877457380294799805e-01 9.333535283803939819e-02 6.108896732330322266e-01 1.312607407569885254e+00 -3.304137289524078369e-01 -6.798635721206665039e-01 -1.365241050720214844e+00 5.746127963066101074e-01 1.709547519683837891e+00 -1.592787265777587891e+00 7.727376222610473633e-01 -2.452803611755371094e+00 3.871031999588012695e-01 1.543630719184875488e+00 5.638452768325805664e-01 -6.997130513191223145e-01 1.445132136344909668e+00 3.647332787513732910e-01 2.776333808898925781e+00 -7.205053567886352539e-01 -5.395224094390869141e-01 2.039105594158172607e-01 -5.858491659164428711e-01 2.018013298511505127e-01 6.545410156250000000e-01 2.823571860790252686e-01 6.266393065452575684e-01 -2.435702532529830933e-01 -8.503468632698059082e-01 -1.061362981796264648e+00 1.977338194847106934e-01 3.164449632167816162e-01 2.265727967023849487e-01 1.193511724472045898e+00 2.114447593688964844e+00 -1.510037302970886230e+00 6.405714154243469238e-01 -1.062938213348388672e+00 9.003674387931823730e-01 6.785143613815307617e-01 -7.600204348564147949e-01 -7.615525722503662109e-01 -4.907674491405487061e-01 1.404666423797607422e+00 -5.296192765235900879e-01 -8.061491847038269043e-01 7.520714402198791504e-01 -2.563933134078979492e+00 6.247774958610534668e-01 -1.007842540740966797e+00 -1.465083479881286621e+00 -1.758906483650207520e+00 -3.270592093467712402e-01 -1.894996464252471924e-01 -1.926701784133911133e+00 4.797352254390716553e-01 1.413818836212158203e+00 -1.625139951705932617e+00 1.185504317283630371e+00 -4.832020699977874756e-01 -1.461419165134429932e-01 -4.304921329021453857e-01 1.368862748146057129e+00 1.013837337493896484e+00 1.186273455619812012e+00 -1.802299857139587402e+00 -1.232906341552734375e+00 -1.036461472511291504e+00 1.670016169548034668e+00 9.243855476379394531e-01 -1.644199490547180176e+00 -3.847976624965667725e-01 2.248927205801010132e-01 -1.246710643172264099e-01 9.822301864624023438e-01 -1.471082806587219238e+00 1.849248409271240234e+00 1.095692962408065796e-01 -5.303071141242980957e-01 -1.542054772377014160e+00 1.105189442634582520e+00 6.649430096149444580e-02 -1.816189765930175781e+00 -2.740891277790069580e-01 5.466168522834777832e-01 1.343355178833007812e+00 -6.817581653594970703e-01 4.184717833995819092e-01 2.444620281457901001e-01 -2.910060405731201172e+00 1.998005867004394531e+00 6.218577623367309570e-01 -2.155217647552490234e+00 -7.219780683517456055e-01 1.199187859892845154e-01 2.362477779388427734e-02 3.973666429519653320e-01 9.332236051559448242e-01 8.830873966217041016e-01 4.470465183258056641e-01 2.785479545593261719e+00 1.377334147691726685e-01 2.957950532436370850e-01 -5.289437174797058105e-01 -9.563254714012145996e-01 -1.178618669509887695e+00 3.769734799861907959e-01 9.467636942863464355e-01 5.971906185150146484e-01 -2.404587566852569580e-01 5.940020680427551270e-01 6.284310817718505859e-01 7.736135721206665039e-01 -1.373256444931030273e+00 5.590676516294479370e-02 -4.789427220821380615e-01 -9.138503670692443848e-01 1.390086412429809570e+00 5.573720932006835938e-01 -4.256736859679222107e-02 6.948055028915405273e-01 8.014209270477294922e-01 -1.503537446260452271e-01 4.316388666629791260e-01 1.502066105604171753e-01 -1.610816597938537598e+00 -1.402933120727539062e+00 -1.460179448127746582e+00 -3.101575076580047607e-01 -1.690704107284545898e+00 -1.486199200153350830e-01 -2.112711191177368164e+00 -1.185058474540710449e+00 1.083569645881652832e+00 3.087837994098663330e-01 9.941136837005615234e-01 -1.463774919509887695e+00 -3.255872130393981934e-01 1.408890604972839355e+00 -6.362327188253402710e-02 7.137522697448730469e-01 -1.233691930770874023e+00 -1.191571235656738281e+00 2.759443819522857666e-01 -2.035113334655761719e+00 2.324075400829315186e-01 3.548137843608856201e-01 -1.825220823287963867e+00 6.943137049674987793e-01 -7.953284978866577148e-01 -1.220127224922180176e+00 1.394274234771728516e+00 3.196884393692016602e-01 1.027952313423156738e+00 4.723266661167144775e-01 1.173871874809265137e+00 9.479516148567199707e-01 2.098578959703445435e-01 1.628036618232727051e+00 -1.136703968048095703e+00 7.178077101707458496e-01 5.765933394432067871e-01 1.395750761032104492e+00 7.297483086585998535e-01 -1.191969513893127441e+00 9.897388815879821777e-01
-1.585191726684570312e+00 -1.876233667135238647e-01 -7.201294898986816406e-01 -6.833496093750000000e-01 -1.941973090171813965e+00 1.416458606719970703e+00 1.155637577176094055e-01 5.434476137161254883e-01 -8.296214342117309570e-01 2.278312891721725464e-01 1.778942704200744629e+00 -2.533697843551635742e+00 -4.363023638725280762e-01 -8.335974812507629395e-01 6.029973626136779785e-01 2.494638115167617798e-01 -1.322416543960571289e+00 2.895991086959838867e+00 -3.247376382350921631e-01 -8.096969127655029297e-01 -2.899956703186035156e-01 -7.063457965850830078e-01 -8.248966932296752930e-01 8.401933312416076660e-01 9.611023068428039551e-01 -1.208192482590675354e-01 1.601876258850097656e+00 -5.374088883399963379e-01 -5.671557039022445679e-03 -1.568909168243408203e+00 -1.035070061683654785e+00 2.258692830801010132e-01 -3.368809521198272705e-01 1.197825789451599121e+00 1.292633533477783203e+00 -1.540804862976074219e+00 -1.127766847610473633e+00 7.555806040763854980e-01 -1.765423297882080078e+00 8.391183614730834961e-01 8.109503984451293945e-01 -4.226329624652862549e-01 -6.149551868438720703e-01 1.579890727996826172e+00 -1.975670337677001953e+00 1.600636243820190430e+00 -9.969383478164672852e-01 1.505022287368774414e+00 -7.910157740116119385e-02 -6.330265402793884277e-01 9.064741730690002441e-01 3.844260871410369873e-01 2.493634670972824097e-01 2.188676834106445312e+00 -1.587746024131774902e+00 1.556162476539611816e+00 3.175549209117889404e-02 1.343974709510803223e+00 6.550690531730651855e-01 4.049428999423980713e-01 -1.331688404083251953e+00 -9.939857721328735352e-01 -5.359565019607543945e-01 -1.216517910361289978e-01 -1.509797453880310059e+00 1.054522275924682617e+00 -2.289974689483642578e+00 1.902647852897644043e+00 2.775281965732574463e-01 3.632589578628540039e-01 -3.744230866432189941e-01 -1.406132578849792480e+00 -1.124836504459381104e-01 -6.863712072372436523e-01 -7.848478555679321289e-01 -9.169783592224121094e-01 1.981568574905395508e+00 -2.888752818107604980e-01 -1.208040833473205566e+00 -1.571279644966125488e+00 6.394284367561340332e-01 1.235300660133361816e+00 1.775655984878540039e+00 9.083164930343627930e-01 1.067046642303466797e+00 -1.857136487960815430e+00 -1.372386664152145386e-01 -5.817419886589050293e-01 -1.105294227600097656e+00 2.580123662948608398e+00 8.494409322738647461e-01 1.561297059059143066e+00 -8.115261197090148926e-01 -7.365642189979553223e-01 -3.961505293846130371e-01 3.788922354578971863e-02 1.318968296051025391e+00 4.598754942417144775e-01 1.371626108884811401e-01 8.828824162483215332e-01 -1.358321428298950195e+00 2.411253750324249268e-02 9.911464452743530273e-01 1.620302319526672363e+00 2.139126777648925781e+00 4.074265062808990479e-01 1.706688523292541504e+00 1.686469674110412598e+00 1.059642195701599121e+00 -8.485774993896484375e-01 -7.896035909652709961e-01 -1.031793594360351562e+00 -2.302003204822540283e-01 3.448845744132995605e-01 -2.724495232105255127e-01 5.191606879234313965e-01 1.558020710945129395e+00 -1.735039830207824707e+00 -8.956692218780517578e-01 -1.876032471656799316e+00 8.441967964172363281e-01 6.088522672653198242e-01 -1.219444990158081055e+00 -5.165292024612426758e-01 1.096046566963195801e+00 -9.370316267013549805e-01 8.022807836532592773e-01 5.984603166580200195e-01 -1.706696391105651855e+00 2.207187414169311523e+00 -2.404370754957199097e-01 -7.468712329864501953e-01 -1.857416778802871704e-01 -1.310996770858764648e+00 2.557061433792114258e+00 -2.049315690994262695e+00 -9.617003202438354492e-01 2.476462908089160919e-02 -7.970367074012756348e-01 1.030783355236053467e-01 -3.497712016105651855e-01 -2.567948400974273682e-01 1.159754514694213867e+00 1.003436446189880371e+00 1.478049159049987793e+00 -8.730102777481079102e-01 2.168811082839965820e+00 -1.758882641792297363e+00 3.066027462482452393e-01 9.945077896118164062e-01 -1.766090393066406250e+00 6.825841069221496582e-01 4.506049752235412598e-01 -8.489071130752563477e-01 -4.592782258987426758e-01 -2.051870822906494141e+00 1.483731865882873535e-01 2.292389869689941406e+00 -1.582546234130859375e+00 8.014358878135681152e-01 6.850829124450683594e-01 2.107693433761596680e+00 -9.829965233802795410e-01 3.121449053287506104e-01 -6.715583801269531250e-01 1.770385384559631348e+00 3.717190027236938477e-01 7.196441888809204102e-01 1.088828802108764648e+00 -1.086146950721740723e+00 -2.166527748107910156e+00 7.669281363487243652e-01 7.397887110710144043e-01 1.397046297788619995e-01 -1.314880609512329102e+00 -6.671577692031860352e-01 -1.147673606872558594e+00 -5.044565796852111816e-01 1.330429315567016602e-01 -2.381662607192993164e+00 8.747740983963012695e-01 8.503981828689575195e-01 1.669150352478027344e+00 1.327769398689270020e+00 -1.744690775871276855e+00 -8.708161711692810059e-01 6.231151223182678223e-01 -1.124656558036804199e+00 -3.394873440265655518e-01 1.637106180191040039e+00 6.476914882659912109e-01 -1.137810707092285156e+00 -1.708692014217376709e-01 7.989373803138732910e-02 1.131417512893676758e+00 1.296261191368103027e+00 -4.307034909725189209e-01 -7.617831826210021973e-01 4.536265134811401367e-01 -3.312750160694122314e-01
3.343101441860198975e-01 -6.691111326217651367e-01 1.475500822067260742e+00 -1.436835765838623047e+00 -4.855142906308174133e-02 1.473566055297851562e+00 1.754365801811218262e+00 7.117021083831787109e-01 7.538220882415771484e-01 -1.440163701772689819e-01 3.754121959209442139e-01 2.548536062240600586e-01 3.754979372024536133e-01 6.389075517654418945e-01 -1.243667364120483398e+00 -2.653452157974243164e-01 -8.009516000747680664e-01 -2.355752736330032349e-01 1.104550957679748535e+00 -3.016549050807952881e-01 -3.909845352172851562e-01 1.156107306480407715e+00 1.330662608146667480e+00 -4.708434939384460449e-01 -5.741830468177795410e-01 1.019344210624694824e+00 -1.976649910211563110e-01 -3.510300219058990479e-01 -1.196550130844116211e+00 -5.021404027938842773e-01 9.933879375457763672e-01 -1.196398854255676270e+00 1.912927985191345215e+00 6.871669292449951172e-01 8.834550529718399048e-02 6.695075035095214844e-01 1.858310252428054810e-01 1.161603093147277832e+00 8.198018670082092285e-01 3.141237795352935791e-01 -1.380164980888366699e+00 1.077530503273010254e+00 7.048141360282897949e-01 -2.107054233551025391e+00 -8.789349794387817383e-01 3.582600355148315430e-01 -9.809880703687667847e-02 1.093239411711692810e-01 1.386789798736572266e+00 8.103085160255432129e-01 8.062339425086975098e-01 -6.293600797653198242e-01 8.311496376991271973e-01 -2.119252443313598633e+00 -4.176108837127685547e-01 -1.445461153984069824e+00 1.462011933326721191e+00 -6.611194014549255371e-01 -5.120228528976440430e-01 -5.370292663574218750e-01 -1.434176713228225708e-01 -2.140973508358001709e-01 -2.022701025009155273e+00 -7.085614800453186035e-01 1.056357264518737793e+00 1.901872992515563965e+00 4.743057787418365479e-01 6.105574965476989746e-01 6.115787476301193237e-02 -1.738113403320312500e+00 1.041651248931884766e+00 3.545087277889251709e-01 -1.041345715522766113e+00 5.729231238365173340e-01 1.829753965139389038e-01 -5.693125128746032715e-01 2.453362643718719482e-01 -4.282521903514862061e-01 3.941196799278259277e-01 -1.002452731132507324e+00 1.951241850852966309e+00 9.388531446456909180e-01 4.351347684860229492e-02 -9.436675310134887695e-01 4.656265955418348312e-03 -1.022804260253906250e+00 4.106434583663940430e-01 -1.175030231475830078e+00 -1.557690024375915527e+00 4.001400470733642578e-01 9.024651646614074707e-01 -1.221507266163825989e-01 1.723237276077270508e+00 -1.022812128067016602e+00 7.449796795845031738e-01 1.112375020980834961e+00 1.170781776309013367e-01 1.335905790328979492e+00 2.071182012557983398e+00 -4.676806181669235229e-02 1.243013501167297363e+00 -1.064106896519660950e-01 -9.524649381637573242e-01 -4.947685599327087402e-01 -1.295461416244506836e+00 6.410971879959106445e-01 -7.453699707984924316e-01 -2.500528097152709961e-01 -3.962640762329101562e-01 1.134551048278808594e+00 -3.590317964553833008e-01 9.313670545816421509e-02 1.423136234283447266e+00 1.577806591987609863e+00 3.996494710445404053e-01 9.359058737754821777e-01 2.336435616016387939e-01 2.483732104301452637e-01 -2.208193540573120117e+00 -4.497530460357666016e-01 3.061181306838989258e-01 1.540519297122955322e-01 8.270298838615417480e-01 2.139853388071060181e-01 -1.429129362106323242e+00 -4.593972265720367432e-01 4.048598706722259521e-01 -5.785769820213317871e-01 -3.164458572864532471e-01 6.695891618728637695e-01 3.253629207611083984e-01 1.160202860832214355e+00 2.080625057220458984e+00 -4.406075477600097656e-01 1.187499523162841797e+00 -1.341563463211059570e+00 -6.154407858848571777e-01 8.201089501380920410e-02 -2.646245956420898438e-01 2.891972959041595459e-01 -7.383418679237365723e-01 1.517237424850463867e+00 4.330580234527587891e-01 7.812707424163818359e-01 3.132963180541992188e+00 -2.461715459823608398e+00 2.741374075412750244e-01 1.993805021047592163e-01 6.557883322238922119e-02 -1.730242371559143066e+00 -1.004545450210571289e+00 -7.209016680717468262e-01 -1.893148273229598999e-01 1.047472000122070312e+00 7.515389919281005859e-01 2.015129566192626953e+00 5.701870322227478027e-01 6.088820472359657288e-02 -7.635553926229476929e-02 -3.166400790214538574e-01 5.415592789649963379e-01 2.875792682170867920e-01 5.437309145927429199e-01 -4.048359096050262451e-01 2.919313311576843262e-01 1.104800850152969360e-01 -1.707917809486389160e+00 -2.493912875652313232e-01 -9.033823013305664062e-01 -2.583951652050018311e-01 2.243467807769775391e+00 7.961269617080688477e-01 1.078054428100585938e+00 1.773491203784942627e-01 -5.499601960182189941e-01 1.139371871948242188e+00 -1.118872836232185364e-01 -1.308101892471313477e+00 -1.147290825843811035e+00 1.459848165512084961e+00 2.571313679218292236e-01 -1.249096512794494629e+00 -1.605020642280578613e+00 1.396409749984741211e+00 5.432062149047851562e-01 -6.582573652267456055e-01 -6.066142916679382324e-01 7.396261096000671387e-01 -7.804700136184692383e-01 -3.428359925746917725e-01 -1.558435559272766113e-01 1.751604437828063965e+00 -1.003853797912597656e+00 -6.562191843986511230e-01 -3.643938302993774414e-01 1.551563978195190430e+00 -5.817385017871856689e-02 1.114145517349243164e+00 -3.022928833961486816e-01 -3.799322247505187988e-01
0.000000000000000000e+00 0.000000000000000000e+00 0.000000000000000000e+00 0.000000000000000000e+00 0.000000000000000000e+00 0.000000000000000000e+00 0.000000000000000000e+00 0.000000000000000000e+00 0.000000000000000000e+00 0.000000000000000000e+00 0.000000000000000000e+00 0.000000000000000000e+00 0.000000000000000000e+00 0.000000000000000000e+00 0.000000000000000000e+00 0.000000000000000000e+00 0.000000000000000000e+00 0.000000000000000000e+00 0.000000000000000000e+00 0.000000000000000000e+00 0.000000000000000000e+00 0.000000000000000000e+00 0.000000000000000000e+00 0.000000000000000000e+00 0.000000000000000000e+00 0.000000000000000000e+00 0.000000000000000000e+00 0.000000000000000000e+00 0.000000000000000000e+00 0.000000000000000000e+00 0.000000000000000000e+00 0.000000000000000000e+00 0.000000000000000000e+00 0.000000000000000000e+00 0.000000000000000000e+00 0.000000000000000000e+00 0.000000000000000000e+00 0.000000000000000000e+00 0.000000000000000000e+00 0.000000000000000000e+00 0.000000000000000000e+00 0.000000000000000000e+00 0.000000000000000000e+00 0.000000000000000000e+00 0.000000000000000000e+00 0.000000000000000000e+00 0.000000000000000000e+00 0.000000000000000000e+00 0.000000000000000000e+00 0.000000000000000000e+00 0.000000000000000000e+00 0.000000000000000000e+00 0.000000000000000000e+00 0.000000000000000000e+00 0.000000000000000000e+00 0.000000000000000000e+00 0.000000000000000000e+00 0.000000000000000000e+00 0.000000000000000000e+00 0.000000000000000000e+00 0.000000000000000000e+00 0.000000000000000000e+00 0.000000000000000000e+00 0.000000000000000000e+00 0.000000000000000000e+00 0.000000000000000000e+00 0.000000000000000000e+00 0.000000000000000000e+00 0.000000000000000000e+00 0.000000000000000000e+00 0.000000000000000000e+00 0.000000000000000000e+00 0.000000000000000000e+00 0.000000000000000000e+00 0.000000000000000000e+00 0.000000000000000000e+00 0.000000000000000000e+00 0.000000000000000000e+00 0.000000000000000000e+00 0.000000000000000000e+00 0.000000000000000000e+00 0.000000000000000000e+00 0.000000000000000000e+00 0.000000000000000000e+00 0.000000000000000000e+00 0.000000000000000000e+00 0.000000000000000000e+00 0.000000000000000000e+00 0.000000000000000000e+00 0.000000000000000000e+00 0.000000000000000000e+00 0.000000000000000000e+00 0.000000000000000000e+00 0.000000000000000000e+00 0.000000000000000000e+00 0.000000000000000000e+00 0.000000000000000000e+00 0.000000000000000000e+00 0.000000000000000000e+00 0.000000000000000000e+00 0.000000000000000000e+00 0.000000000000000000e+00 0.000000000000000000e+00 0.000000000000000000e+00 0.000000000000000000e+00 0.000000000000000000e+00 0.000000000000000000e+00 0.000000000000000000e+00 0.000000000000000000e+00 0.000000000000000000e+00 0.000000000000000000e+00 0.000000000000000000e+00 0.000000000000000000e+00 0.000000000000000000e+00 0.000000000000000000e+00 0.000000000000000000e+00 0.000000000000000000e+00 0.000000000000000000e+00 0.000000000000000000e+00 0.000000000000000000e+00 0.000000000000000000e+00 0.000000000000000000e+00 0.000000000000000000e+00 0.000000000000000000e+00 0.000000000000000000e+00 0.000000000000000000e+00 0.000000000000000000e+00 0.000000000000000000e+00 0.000000000000000000e+00 0.000000000000000000e+00 0.000000000000000000e+00 0.000000000000000000e+00 0.000000000000000000e+00 0.000000000000000000e+00 0.000000000000000000e+00 0.000000000000000000e+00 0.000000000000000000e+00 0.000000000000000000e+00 0.000000000000000000e+00 0.000000000000000000e+00 0.000000000000000000e+00 0.000000000000000000e+00 0.000000000000000000e+00 0.000000000000000000e+00 0.000000000000000000e+00 0.000000000000000000e+00 0.000000000000000000e+00 0.000000000000000000e+00 0.000000000000000000e+00 0.000000000000000000e+00 0.000000000000000000e+00 0.000000000000000000e+00 0.000000000000000000e+00 0.000000000000000000e+00 0.000000000000000000e+00 0.000000000000000000e+00 0.000000000000000000e+00 0.000000000000000000e+00 0.000000000000000000e+00 0.000000000000000000e+00 0.000000000000000000e+00 0.000000000000000000e+00 0.000000000000000000e+00 0.000000000000000000e+00 0.000000000000000000e+00 0.000000000000000000e+00 0.000000000000000000e+00 0.000000000000000000e+00 0.000000000000000000e+00 0.000000000000000000e+00 0.000000000000000000e+00 0.000000000000000000e+00 0.000000000000000000e+00 0.000000000000000000e+00 0.000000000000000000e+00 0.000000000000000000e+00 0.000000000000000000e+00 0.000000000000000000e+00 0.000000000000000000e+00 0.000000000000000000e+00 0.000000000000000000e+00 0.000000000000000000e+00 0.000000000000000000e+00 0.000000000000000000e+00 0.000000000000000000e+00 0.000000000000000000e+00 0.000000000000000000e+00 0.000000000000000000e+00 0.000000000000000000e+00 0.000000000000000000e+00 0.000000000000000000e+00 0.000000000000000000e+00 0.000000000000000000e+00 0.000000000000000000e+00 0.000000000000000000e+00 0.000000000000000000e+00 0.000000000000000000e+00 0.000000000000000000e+00 0.000000000000000000e+00 0.000000000000000000e+00
6.336243748664855957e-01 1.491224288940429688e+00 -3.105359971523284912e-01 -6.320853829383850098e-01 -1.085278391838073730e+00 -1.795108795166015625e+00 -6.716517806053161621e-01 9.469684958457946777e-01 1.235321164131164551e+00 3.658136725425720215e-01 1.629561543464660645e+00 1.528328299522399902e+00 -1.818301200866699219e+00 -7.974101305007934570e-01 -3.472109138965606689e-01 5.930228829383850098e-01 -2.984109818935394287e-01 8.543574810028076172e-01 -1.276226162910461426e+00 4.350301325321197510e-01 2.157583713531494141e+00 8.353852033615112305e-01 -7.288799881935119629e-01 -4.946792423725128174e-01 3.480815887451171875e-01 -3.958808183670043945e-01 7.874600589275360107e-02 1.369847416877746582e+00 -1.471352934837341309e+00 1.500371247529983521e-01 -4.121818244457244873e-01 -1.689962625503540039e+00 2.866384685039520264e-01 -1.233807325363159180e+00 3.195845782756805420e-01 -3.263186514377593994e-01 1.118572592735290527e+00 5.911605358123779297e-01 2.103784561157226562e+00 1.259957909584045410e+00 -8.553393483161926270e-01 1.516359925270080566e+00 -1.690075546503067017e-01 -1.343542218208312988e+00 -1.722723603248596191e+00 4.875937998294830322e-01 3.763159513473510742e-01 -1.298603296279907227e+00 2.171807885169982910e-01 3.060066998004913330e-01 1.019239574670791626e-01 8.998168110847473145e-01 1.593966633081436157e-01 8.515391349792480469e-01 -1.185416340827941895e+00 -1.489938139915466309e+00 2.340515851974487305e+00 4.115649461746215820e-01 -3.731270432472229004e-01 7.494437694549560547e-01 1.552923321723937988e+00 -2.887684702873229980e-01 4.596335589885711670e-01 -2.287113904953002930e+00 -9.747102856636047363e-01 5.241370797157287598e-01 1.780225485563278198e-01 1.500442147254943848e+00 3.829543888568878174e-01 2.088776111602783203e+00 1.630532145500183105e+00 1.899456262588500977e+00 -1.144338488578796387e+00 1.169998049736022949e+00 6.825861334800720215e-01 -4.158813655376434326e-01 7.633015513420104980e-01 -7.198426723480224609e-01 1.730745434761047363e+00 -1.936642527580261230e+00 -9.118785262107849121e-01 -1.969231724739074707e+00 2.339040279388427734e+00 5.702571868896484375e-01 7.094812989234924316e-01 -8.003474795259535313e-04 -1.028839111328125000e+00 2.210445553064346313e-01 -5.974834561347961426e-01 -8.317700624465942383e-01 3.615993857383728027e-01 -8.168842196464538574e-01 7.749844193458557129e-01 -5.738399028778076172e-01 1.499647140502929688e+00 2.060660719871520996e-01 1.545795440673828125e+00 2.735114097595214844e-02 -1.119841814041137695e+00 -7.900756001472473145e-01 -2.441464662551879883e-01 2.074007987976074219e-01 -8.167426586151123047e-01 1.743139028549194336e+00 -1.089275836944580078e+00 6.640121936798095703e-01 2.299679368734359741e-01 -6.473081558942794800e-02 6.257362663745880127e-02 -1.736491560935974121e+00 9.498032927513122559e-01 -9.105028510093688965e-01 1.309254646301269531e+00 9.062095731496810913e-02 9.198206663131713867e-01 -3.538684546947479248e-02 -2.526876330375671387e-01 -1.096819758415222168e+00 -3.496557772159576416e-01 8.288041949272155762e-01 9.853967428207397461e-01 -8.505806326866149902e-01 1.581099480390548706e-01 5.098960921168327332e-02 -6.316629052162170410e-01 1.467491626739501953e+00 -1.767564892768859863e+00 3.104789853096008301e-01 1.444944739341735840e+00 1.822012782096862793e+00 1.588290452957153320e+00 -1.212456226348876953e+00 -1.163937330245971680e+00 1.042443871498107910e+00 9.877366423606872559e-01 -5.567298531532287598e-01 -1.450085788965225220e-01 -1.359405755996704102e+00 3.991524875164031982e-01 -1.482723593711853027e+00 1.524143099784851074e+00 -5.341064333915710449e-01 6.043390035629272461e-01 8.788567185401916504e-01 -2.434844225645065308e-01 -1.601426482200622559e+00 -5.828434228897094727e-01 3.453902006149291992e-01 6.359756588935852051e-01 6.789562106132507324e-01 -5.797717571258544922e-01 -4.641716480255126953e-01 -1.756641626358032227e+00 1.016538977622985840e+00 -6.923033595085144043e-01 -1.254254221916198730e+00 -3.642621263861656189e-02 3.066620588302612305e+00 -7.812853902578353882e-02 1.274114698171615601e-01 -8.394127488136291504e-01 3.380537331104278564e-01 4.692035615444183350e-01 -1.078698635101318359e+00 7.163888961076736450e-02 -1.695662021636962891e+00 -2.387310028076171875e+00 7.056673169136047363e-01 6.809792518615722656e-01 -3.193752467632293701e-02 7.340376265347003937e-03 -2.290506601333618164e+00 -3.390495777130126953e-01 3.984810709953308105e-01 -2.447836548089981079e-01 -1.335166811943054199e+00 9.087473154067993164e-01 1.315646171569824219e-01 6.167795062065124512e-01 4.553942084312438965e-01 -1.134047508239746094e+00 -2.504369616508483887e-01 2.101055383682250977e+00 -5.037691593170166016e-01 -1.145001500844955444e-01 2.481953144073486328e+00 1.028342127799987793e+00 1.856633722782135010e-01 -3.083300590515136719e-01 5.095478296279907227e-01 5.945259928703308105e-01 -1.014121294021606445e+00 -8.467765450477600098e-01 -5.259869098663330078e-01 -9.900322556495666504e-01 3.674260079860687256e-01 -2.793780267238616943e-01 -7.772593945264816284e-02 1.433447599411010742e+00 -1.598046272993087769e-01
6.800369620323181152e-01 -1.991495341062545776e-01 2.779554128646850586e-01 -3.595278263092041016e-01 -6.828887462615966797e-01 -9.121279716491699219e-01 -1.314672708511352539e+00 6.125464439392089844e-01 -1.540419608354568481e-01 -1.808618783950805664e+00 -1.852549314498901367e-01 1.268759835511445999e-02 -4.046641588211059570e-01 -5.176113843917846680e-01 -1.666600406169891357e-01 2.268395870923995972e-01 -1.977800279855728149e-01 -3.991882503032684326e-01 -4.715319275856018066e-01 1.412366747856140137e+00 6.379361152648925781e-01 4.389550089836120605e-01 -2.898933887481689453e-01 -4.104191958904266357e-01 -4.870619177818298340e-01 -1.804376959800720215e+00 -3.945241495966911316e-02 6.343875527381896973e-01 -9.285938143730163574e-01 2.730098962783813477e-01 8.450636267662048340e-02 -8.884805440902709961e-01 -6.622563600540161133e-01 2.094033807516098022e-01 4.529906436800956726e-02 -1.555179357528686523e+00 7.846767902374267578e-01 3.607392609119415283e-01 5.455422997474670410e-01 -3.295218348503112793e-01 3.750371932983398438e-01 -1.516537815332412720e-01 -4.107986390590667725e-01 4.086444675922393799e-01 -6.913027912378311157e-02 -4.985733032226562500e-01 6.243811845779418945e-01 -1.764325201511383057e-01 -4.091731905937194824e-01 -2.394259124994277954e-01 -5.114308595657348633e-01 -2.386181801557540894e-02 1.911880224943161011e-01 -4.518746733665466309e-01 -2.025234848260879517e-01 -1.471639275550842285e-01 6.914936900138854980e-01 6.886287927627563477e-01 -1.045569062232971191e+00 -9.812045097351074219e-02 6.048630475997924805e-01 -3.753585517406463623e-01 -3.682728707790374756e-01 1.900517195463180542e-01 -3.914200365543365479e-01 -3.639875650405883789e-01 -1.090258639305830002e-02 -2.804327905178070068e-01 -4.842195808887481689e-01 3.900589644908905029e-01 -4.183965623378753662e-01 -1.441299766302108765e-01 -4.188037812709808350e-01 4.846958220005035400e-01 4.130734205245971680e-01 1.219126105308532715e+00 -3.132546842098236084e-01 2.999665737152099609e-01 5.457318425178527832e-01 -5.473725795745849609e-01 -4.423849284648895264e-01 -6.529574990272521973e-01 9.356781840324401855e-01 2.186289131641387939e-01 -2.578468620777130127e-01 -9.718332439661026001e-02 -2.106326818466186523e-01 6.939964294433593750e-01 5.660020709037780762e-01 -4.147237539291381836e-02 -5.318886041641235352e-01 -8.039905428886413574e-01 9.265822768211364746e-01 6.282621026039123535e-01 9.123955368995666504e-01 2.834438979625701904e-01 7.877439856529235840e-01 9.696177840232849121e-01 -5.821990370750427246e-01 -2.642010748386383057e-01 -7.327024936676025391e-01 1.393514722585678101e-01 -3.259057402610778809e-01 7.116132881492376328e-03 5.761770009994506836e-01 4.144522845745086670e-01 -8.913264274597167969e-01 -5.453569348901510239e-03 -9.921012818813323975e-02 7.295000832527875900e-04 1.437862515449523926e+00 -8.683714270591735840e-01 4.678888916969299316e-01 3.692557513713836670e-01 2.188945263624191284e-01 4.765697419643402100e-01 -1.235645532608032227e+00 -1.073498949408531189e-01 2.261290311813354492e+00 3.777300417423248291e-01 5.567532405257225037e-02 -6.621584296226501465e-02 4.758156836032867432e-01 1.260491311550140381e-01 -6.771643161773681641e-01 3.427326679229736328e-01 1.237345635890960693e-01 4.654609560966491699e-01 1.074491858482360840e+00 1.049521684646606445e+00 8.059508204460144043e-01 -1.874526441097259521e-01 8.078428506851196289e-01 7.877176403999328613e-01 5.805689096450805664e-01 -1.443674415349960327e-01 5.254874825477600098e-01 6.863761544227600098e-01 3.617004156112670898e-01 -2.639831006526947021e-01 5.103237628936767578e-01 -9.660589098930358887e-01 -5.541525483131408691e-01 -9.360663592815399170e-02 7.280116677284240723e-01 -8.559721708297729492e-01 -1.823066025972366333e-01 -1.987484991550445557e-01 -1.977956481277942657e-02 5.309237837791442871e-01 -4.331965148448944092e-01 -7.383400946855545044e-02 3.451378643512725830e-01 6.643567681312561035e-01 -7.610900402069091797e-01 -1.174039602279663086e+00 -1.114041686058044434e+00 9.037556052207946777e-01 7.841893434524536133e-01 1.768974959850311279e-01 -2.680112719535827637e-01 -6.281120330095291138e-02 3.966772854328155518e-01 -5.742390155792236328e-01 2.077419310808181763e-01 -6.314489841461181641e-01 -7.730749249458312988e-01 3.298564255237579346e-01 -1.718856394290924072e-01 -1.126460283994674683e-01 2.574022710323333740e-01 3.629481196403503418e-01 -5.887686610221862793e-01 -6.366718560457229614e-02 -6.752656102180480957e-01 -2.821661233901977539e-01 -6.713020801544189453e-01 -8.514094352722167969e-02 -3.741976022720336914e-01 2.328803241252899170e-01 -4.359530657529830933e-02 4.552183747291564941e-01 7.362201213836669922e-01 8.823366463184356689e-02 8.411164283752441406e-01 1.040942668914794922e+00 -3.402443230152130127e-01 5.383273959159851074e-01 -3.271954879164695740e-02 1.034564137458801270e+00 5.592896342277526855e-01 -3.118397295475006104e-01 -9.322203397750854492e-01 -6.536941975355148315e-02 7.923578470945358276e-02 1.145215034484863281e+00 -1.075256347656250000e+00 5.574846267700195312e-01 7.458386421203613281e-01 -5.867277979850769043e-01
9.807904362678527832e-01 2.292876541614532471e-01 -5.002577602863311768e-02 3.958928957581520081e-02 1.357629746198654175e-01 -1.173408925533294678e-01 3.097639977931976318e-01 8.124039173126220703e-01 1.977852880954742432e-01 5.590485334396362305e-01 4.869486093521118164e-01 2.481640689074993134e-02 -4.691464006900787354e-01 -6.565623283386230469e-01 1.867233663797378540e-01 -2.791582643985748291e-01 -3.546718657016754150e-01 -1.218519732356071472e-01 -8.777743577957153320e-02 -2.723332345485687256e-01 2.358817458152770996e-01 -1.218685358762741089e-01 -7.241404801607131958e-02 2.221503555774688721e-01 -5.725690722465515137e-01 -5.508365631103515625e-01 5.233185291290283203e-01 1.780667752027511597e-01 3.313887715339660645e-01 -3.687376677989959717e-01 3.532825112342834473e-01 -8.199620246887207031e-02 -3.111866414546966553e-01 1.526815444231033325e-01 2.697930932044982910e-01 -1.500810962170362473e-02 3.850133121013641357e-01 2.209430038928985596e-01 -4.220261275768280029e-01 -3.976245522499084473e-01 -5.251334905624389648e-01 4.275954365730285645e-01 -1.344174146652221680e-01 -8.996742367744445801e-01 -2.776879817247390747e-03 6.768404692411422729e-02 -1.429176982492208481e-02 -2.748061418533325195e-01 1.693764626979827881e-01 -2.628137590363621712e-03 5.439917445182800293e-01 2.646320164203643799e-01 -1.051406413316726685e-01 -5.083422660827636719e-01 -6.401177495718002319e-02 6.012611389160156250e-01 -6.796254515647888184e-01 -1.036465540528297424e-01 -2.775230109691619873e-01 -5.148703455924987793e-01 -4.617376923561096191e-01 5.450921133160591125e-03 -1.018611192703247070e-01 -2.464264929294586182e-01 1.287225037813186646e-01 7.397000193595886230e-01 6.750577092170715332e-01 -2.088815867900848389e-01 3.445616066455841064e-01 -7.778081297874450684e-02 -8.068384230136871338e-02 -1.819923967123031616e-01 -3.266793861985206604e-02 4.609434008598327637e-01 2.088427692651748657e-01 -5.107011795043945312e-01 1.541552245616912842e-01 -8.268435299396514893e-02 -3.084599673748016357e-01 -5.576495453715324402e-02 8.224669098854064941e-01 -9.567611217498779297e-01 4.588852524757385254e-01 -3.580705821514129639e-01 -3.274580836296081543e-01 -5.472669601440429688e-01 -5.673543363809585571e-02 -1.985723227262496948e-01 -5.742843151092529297e-01 1.533689349889755249e-01 -1.076326817274093628e-01 -3.158232569694519043e-01 2.040536403656005859e-01 -2.335648536682128906e-01 1.911288201808929443e-01 1.653424054384231567e-01 7.484353184700012207e-01 -4.139063954353332520e-01 3.715849816799163818e-01 -3.184935078024864197e-02 2.746254578232765198e-02 7.360733300447463989e-02 2.415479868650436401e-01 3.173128962516784668e-01 3.834336251020431519e-02 -2.576940953731536865e-01 -4.024646878242492676e-01 -1.119083985686302185e-01 -6.023102253675460815e-02 3.263432160019874573e-02 8.333253115415573120e-02 -3.304068744182586670e-01 6.376481801271438599e-02 -2.793533504009246826e-01 4.163405299186706543e-01 -2.238567173480987549e-01 -8.371065258979797363e-01 -1.322466880083084106e-02 2.778787612915039062e-01 2.571431696414947510e-01 -2.591167986392974854e-01 3.144377768039703369e-01 -3.442852795124053955e-01 -4.832101762294769287e-01 8.094745874404907227e-01 -2.441932819783687592e-02 -7.475688457489013672e-01 -2.260138243436813354e-01 1.457895338535308838e-01 -4.706859122961759567e-03 -1.831314116716384888e-01 -2.414357103407382965e-02 3.293159604072570801e-01 4.927030205726623535e-01 1.320803016424179077e-01 2.424934357404708862e-01 -1.553697735071182251e-01 -5.013343691825866699e-01 3.099128901958465576e-01 -3.996289372444152832e-01 1.640174090862274170e-01 1.224035099148750305e-01 1.978515833616256714e-01 6.737793982028961182e-02 2.028418928384780884e-01 -7.121041417121887207e-02 -4.590419232845306396e-01 -1.535573154687881470e-01 -8.294281363487243652e-01 2.279584854841232300e-01 -7.145709395408630371e-01 3.311991095542907715e-01 2.664259970188140869e-01 2.770629525184631348e-01 -2.261635847389698029e-02 -6.498481035232543945e-01 -4.887997210025787354e-01 8.528029918670654297e-01 -5.183122754096984863e-01 -7.128998637199401855e-02 -6.667264699935913086e-01 -8.821775317192077637e-01 1.727159768342971802e-01 -4.483058750629425049e-01 -4.186760261654853821e-02 -2.193127125501632690e-01 6.136431917548179626e-02 -5.623638033866882324e-01 -1.553254872560501099e-01 2.036163657903671265e-01 5.015807747840881348e-01 7.931660860776901245e-02 6.653554439544677734e-01 -1.582264155149459839e-02 -5.589328408241271973e-01 -1.196815911680459976e-02 -1.838619709014892578e-01 -3.938918560743331909e-02 -3.616560697555541992e-01 -2.403617054224014282e-01 -5.100075900554656982e-02 5.938921570777893066e-01 -2.255031764507293701e-01 -3.533385321497917175e-02 -1.836112439632415771e-01 -3.770904242992401123e-01 -1.207206696271896362e-01 -1.021584942936897278e-01 8.351976871490478516e-01 2.381172776222229004e-01 -6.498168110847473145e-01 1.569063961505889893e-01 7.129099369049072266e-01 -4.312654435634613037e-01 1.523931920528411865e-01 5.480527877807617188e-01 8.606504648923873901e-02 5.237627625465393066e-01 7.188504338264465332e-01 1.686412841081619263e-01
0.000000000000000000e+00 0.000000000000000000e+00 0.000000000000000000e+00 0.000000000000000000e+00 0.000000000000000000e+00 0.000000000000000000e+00 0.000000000000000000e+00 0.000000000000000000e+00 0.000000000000000000e+00 0.000000000000000000e+00 0.000000000000000000e+00 0.000000000000000000e+00 0.000000000000000000e+00 0.000000000000000000e+00 0.000000000000000000e+00 0.000000000000000000e+00 0.000000000000000000e+00 0.000000000000000000e+00 0.000000000000000000e+00 0.000000000000000000e+00 0.000000000000000000e+00 0.000000000000000000e+00 0.000000000000000000e+00 0.000000000000000000e+00 0.000000000000000000e+00 0.000000000000000000e+00 0.000000000000000000e+00 0.000000000000000000e+00 0.000000000000000000e+00 0.000000000000000000e+00 0.000000000000000000e+00 0.000000000000000000e+00 0.000000000000000000e+00 0.000000000000000000e+00 0.000000000000000000e+00 0.000000000000000000e+00 0.000000000000000000e+00 0.000000000000000000e+00 0.000000000000000000e+00 0.000000000000000000e+00 0.000000000000000000e+00 0.000000000000000000e+00 0.000000000000000000e+00 0.000000000000000000e+00 0.000000000000000000e+00 0.000000000000000000e+00 0.000000000000000000e+00 0.000000000000000000e+00 0.000000000000000000e+00 0.000000000000000000e+00 0.000000000000000000e+00 0.000000000000000000e+00 0.000000000000000000e+00 0.000000000000000000e+00 0.000000000000000000e+00 0.000000000000000000e+00 0.000000000000000000e+00 0.000000000000000000e+00 0.000000000000000000e+00 0.000000000000000000e+00 0.000000000000000000e+00 0.000000000000000000e+00 0.000000000000000000e+00 0.000000000000000000e+00 0.000000000000000000e+00 0.000000000000000000e+00 0.000000000000000000e+00 0.000000000000000000e+00 0.000000000000000000e+00 0.000000000000000000e+00 0.000000000000000000e+00 0.000000000000000000e+00 0.000000000000000000e+00 0.000000000000000000e+00 0.000000000000000000e+00 0.000000000000000000e+00 0.000000000000000000e+00 0.000000000000000000e+00 0.000000000000000000e+00 0.000000000000000000e+00 0.000000000000000000e+00 0.000000000000000000e+00 0.000000000000000000e+00 0.000000000000000000e+00 0.000000000000000000e+00 0.000000000000000000e+00 0.000000000000000000e+00 0.000000000000000000e+00 0.000000000000000000e+00 0.000000000000000000e+00 0.000000000000000000e+00 0.000000000000000000e+00 0.000000000000000000e+00 0.000000000000000000e+00 0.000000000000000000e+00 0.000000000000000000e+00 0.000000000000000000e+00 0.000000000000000000e+00 0.000000000000000000e+00 0.000000000000000000e+00 0.000000000000000000e+00 0.000000000000000000e+00 0.000000000000000000e+00 0.000000000000000000e+00 0.000000000000000000e+00 0.000000000000000000e+00 0.000000000000000000e+00 0.000000000000000000e+00 0.000000000000000000e+00 0.000000000000000000e+00 0.000000000000000000e+00 0.000000000000000000e+00 0.000000000000000000e+00 0.000000000000000000e+00 0.000000000000000000e+00 0.000000000000000000e+00 0.000000000000000000e+00 0.000000000000000000e+00 0.000000000000000000e+00 0.000000000000000000e+00 0.000000000000000000e+00 0.000000000000000000e+00 0.000000000000000000e+00 0.000000000000000000e+00 0.000000000000000000e+00 0.000000000000000000e+00 0.000000000000000000e+00 0.000000000000000000e+00 0.000000000000000000e+00 0.000000000000000000e+00 0.000000000000000000e+00 0.000000000000000000e+00 0.000000000000000000e+00 0.000000000000000000e+00 0.000000000000000000e+00 0.000000000000000000e+00 0.000000000000000000e+00 0.000000000000000000e+00 0.000000000000000000e+00 0.000000000000000000e+00 0.000000000000000000e+00 0.000000000000000000e+00 0.000000000000000000e+00 0.000000000000000000e+00 0.000000000000000000e+00 0.000000000000000000e+00 0.000000000000000000e+00 0.000000000000000000e+00 0.000000000000000000e+00 0.000000000000000000e+00 0.000000000000000000e+00 0.000000000000000000e+00 0.000000000000000000e+00 0.000000000000000000e+00 0.000000000000000000e+00 0.000000000000000000e+00 0.000000000000000000e+00 0.000000000000000000e+00 0.000000000000000000e+00 0.000000000000000000e+00 0.000000000000000000e+00 0.000000000000000000e+00 0.000000000000000000e+00 0.000000000000000000e+00 0.000000000000000000e+00 0.000000000000000000e+00 0.000000000000000000e+00 0.000000000000000000e+00 0.000000000000000000e+00 0.000000000000000000e+00 0.000000000000000000e+00 0.000000000000000000e+00 0.000000000000000000e+00 0.000000000000000000e+00 0.000000000000000000e+00 0.000000000000000000e+00 0.000000000000000000e+00 0.000000000000000000e+00 0.000000000000000000e+00 0.000000000000000000e+00 0.000000000000000000e+00 0.000000000000000000e+00 0.000000000000000000e+00 0.000000000000000000e+00 0.000000000000000000e+00 0.000000000000000000e+00 0.000000000000000000e+00 0.000000000000000000e+00 0.000000000000000000e+00 0.000000000000000000e+00 0.000000000000000000e+00 0.000000000000000000e+00 0.000000000000000000e+00 0.000000000000000000e+00 0.000000000000000000e+00 0.000000000000000000e+00 0.000000000000000000e+00 0.000000000000000000e+00 0.000000000000000000e+00 0.000000000000000000e+00
-1.884286642074584961e+00 -3.409658670425415039e-01 3.036977648735046387e-01 -5.662104487419128418e-01 -1.933110475540161133e+00 -1.693765044212341309e+00 -4.861445724964141846e-01 5.770316123962402344e-01 -1.221118122339248657e-01 -1.006307601928710938e-01 3.033497929573059082e-01 -1.168256103992462158e-01 3.511071205139160156e-01 8.311921954154968262e-01 -1.907139271497726440e-02 1.787709474563598633e+00 9.806191325187683105e-01 1.194494366645812988e+00 6.059038043022155762e-01 7.489237934350967407e-02 3.627102077007293701e-02 -2.923803627490997314e-01 7.669712603092193604e-02 -1.751162558794021606e-01 -2.037898302078247070e+00 -7.464372515678405762e-01 8.592811822891235352e-01 1.069891452789306641e+00 9.372956752777099609e-01 -2.393195480108261108e-01 2.093299627304077148e+00 -1.291580438613891602e+00 -1.023580551147460938e+00 -9.637227654457092285e-01 8.123128414154052734e-01 -3.948408067226409912e-01 -7.052029371261596680e-01 1.604164481163024902e+00 2.304721772670745850e-01 -2.988601028919219971e-01 -1.320806026458740234e+00 -5.398364067077636719e-01 9.930376410484313965e-01 -9.375919103622436523e-01 2.536431849002838135e-01 1.981992572546005249e-01 -2.470135211944580078e+00 1.204674720764160156e+00 -3.238245546817779541e-01 1.494282722473144531e+00 -1.699325069785118103e-02 2.221068382263183594e+00 5.421208739280700684e-01 4.348972439765930176e-01 -3.655592501163482666e-01 -9.533091634511947632e-02 -1.586047410964965820e+00 5.545845627784729004e-02 9.233598113059997559e-01 1.198808431625366211e+00 1.109666675329208374e-01 6.527391076087951660e-01 -4.473870992660522461e-01 -1.087030649185180664e+00 9.906429648399353027e-01 1.265409350395202637e+00 -3.652779757976531982e-01 -8.824311494827270508e-01 -5.469701290130615234e-01 -2.325694084167480469e+00 -4.592304117977619171e-03 -1.181561827659606934e+00 8.178908228874206543e-01 -1.683174133300781250e+00 2.174034118652343750e+00 -3.644568026065826416e-01 5.892753601074218750e-01 1.265581130981445312e+00 9.840110540390014648e-01 -6.216689348220825195e-01 -2.766801118850708008e-01 -8.367861509323120117e-01 -2.276710867881774902e-01 -5.629787221550941467e-02 -1.195142865180969238e+00 2.828864753246307373e-01 -6.596236824989318848e-01 -4.544218182563781738e-01 -7.223879694938659668e-01 8.762206137180328369e-02 4.024358689785003662e-01 7.280768156051635742e-01 1.083718180656433105e+00 -1.054144740104675293e+00 1.440828680992126465e+00 -2.008082121610641479e-01 -3.615063428878784180e-01 -5.101274251937866211e-01 5.613789707422256470e-02 4.788350462913513184e-01 -6.853122115135192871e-01 1.857314258813858032e-01 -8.063095211982727051e-01 -4.017712175846099854e-01 -8.639464974403381348e-01 -4.497122019529342651e-02 8.877235651016235352e-02 1.051926136016845703e+00 -5.556680560111999512e-01 -4.895355105400085449e-01 1.983089208602905273e+00 9.102417230606079102e-01 2.356987714767456055e+00 4.702637791633605957e-01 1.156558990478515625e+00 4.574587047100067139e-01 -1.220714211463928223e+00 8.175717592239379883e-01 1.700769960880279541e-01 -1.408755183219909668e-01 -1.793170213699340820e+00 1.134224385023117065e-01 -1.397207498550415039e+00 -3.636643886566162109e-01 -5.607610195875167847e-02 -1.580488830804824829e-01 -1.899282217025756836e+00 -6.779465675354003906e-01 -7.608680725097656250e-01 -4.659230411052703857e-01 5.810727924108505249e-02 1.106569841504096985e-01 -6.205664873123168945e-01 1.479480028152465820e+00 1.790340542793273926e+00 -1.293549537658691406e+00 -3.902761340141296387e-01 -3.308044075965881348e-01 -2.558511197566986084e-01 1.145926117897033691e+00 7.400191575288772583e-02 1.434632182121276855e+00 4.468979239463806152e-01 1.962242364883422852e+00 1.826580286026000977e+00 -1.696286201477050781e+00 -9.226486086845397949e-02 -6.424555778503417969e-01 -1.085744261741638184e+00 -4.989400133490562439e-02 7.731573581695556641e-01 1.661839127540588379e+00 -4.102798700332641602e-01 8.119494318962097168e-01 2.853994071483612061e-01 1.662392377853393555e+00 3.164060711860656738e-01 -1.801822036504745483e-01 7.732026278972625732e-02 -1.320159912109375000e+00 -1.186637654900550842e-01 -5.370789170265197754e-01 -7.464606314897537231e-02 2.611946463584899902e-01 6.720914840698242188e-01 -2.183491706848144531e+00 -8.693050146102905273e-01 -1.457976818084716797e+00 -1.319843232631683350e-01 -2.936183512210845947e-01 -1.815386414527893066e+00 -4.697147011756896973e-01 1.343893408775329590e+00 6.359750032424926758e-01 7.858948111534118652e-01 -1.324725896120071411e-01 7.059593200683593750e-01 -8.848928809165954590e-01 -1.607850909233093262e+00 8.390763401985168457e-02 7.198166251182556152e-01 7.813075184822082520e-01 -1.687904715538024902e+00 -4.136605858802795410e-01 7.175733447074890137e-01 -1.132529973983764648e-02 -1.786490157246589661e-02 3.984749019145965576e-01 -1.627768635749816895e+00 -2.700239652767777443e-03 1.455221891403198242e+00 9.455373287200927734e-01 1.072903752326965332e+00 -4.658311903476715088e-01 2.701984941959381104e-01 -1.475159674882888794e-01 8.870950937271118164e-01 -2.214980684220790863e-02 6.839316487312316895e-01 -6.482119560241699219e-01
1.181647658348083496e+00 -1.226007223129272461e+00 6.096044555306434631e-02 -3.529309034347534180e-01 9.394413232803344727e-01 2.334879934787750244e-01 8.258191943168640137e-01 1.611773252487182617e+00 2.686693072319030762e-01 2.145115137100219727e+00 -2.864573001861572266e-01 1.166201949119567871e+00 -3.958585262298583984e-01 -4.825517833232879639e-01 -4.960398077964782715e-01 -3.735779225826263428e-01 -1.347809553146362305e+00 -9.725071787834167480e-01 7.030325531959533691e-01 2.879224717617034912e-01 -2.504117012023925781e+00 -8.701850771903991699e-01 8.458545804023742676e-01 -1.894466578960418701e-01 9.698350429534912109e-01 -8.092144131660461426e-01 1.623179316520690918e+00 2.842909336090087891e+00 -1.973391652107238770e+00 4.098337143659591675e-02 4.856728017330169678e-01 -3.666531667113304138e-02 -8.580199480056762695e-01 -1.210614204406738281e+00 -1.811223626136779785e+00 -9.867769479751586914e-02 -1.638136506080627441e+00 5.702249407768249512e-01 -3.944735825061798096e-01 3.839622950181365013e-04 -1.036833643913269043e+00 1.756613492965698242e+00 6.479630470275878906e-01 -1.235104680061340332e+00 1.357700109481811523e+00 -3.819072246551513672e-01 -1.047482967376708984e+00 9.035786390304565430e-01 1.497054696083068848e+00 1.613448381423950195e+00 4.757936596870422363e-01 -3.177010059356689453e+00 1.334720849990844727e+00 -1.776893734931945801e+00 -8.627091050148010254e-01 -2.878015935420989990e-01 -7.325755953788757324e-01 2.232160568237304688e+00 1.315170526504516602e+00 4.210289940237998962e-02 2.622551918029785156e-01 -5.378102064132690430e-01 -1.664809107780456543e+00 -1.955333054065704346e-01 1.548074722290039062e+00 1.408497691154479980e+00 9.753944277763366699e-01 1.167855978012084961e+00 -1.425937533378601074e+00 -1.198289632797241211e+00 1.595883846282958984e+00 1.094025492668151855e+00 -1.040014743804931641e+00 -3.173826932907104492e+00 -9.529798626899719238e-01 3.562882840633392334e-01 -7.237559556961059570e-01 -6.315517425537109375e-01 6.034265160560607910e-01 -1.032433032989501953e+00 1.875907540321350098e+00 5.235068798065185547e-01 3.805668056011199951e-01 -4.748653471469879150e-01 2.895533740520477295e-01 -1.898372471332550049e-01 -6.752409934997558594e-01 1.580858588218688965e+00 -1.075109481811523438e+00 1.484052836894989014e-01 1.235928297042846680e+00 -6.533719897270202637e-01 -2.916726350784301758e+00 4.077544212341308594e-01 7.463751435279846191e-01 -4.496484696865081787e-01 -1.784617424011230469e+00 5.567194223403930664e-01 7.305021286010742188e-01 5.902917683124542236e-02 -9.936887025833129883e-01 -1.139008879661560059e+00 1.373800635337829590e+00 5.874332785606384277e-01 -2.890483617782592773e+00 -1.527683854103088379e+00 -7.115198373794555664e-01 -2.522092461585998535e-01 1.507969379425048828e+00 1.446833133697509766e+00 -2.180996656417846680e+00 -1.062173247337341309e+00 -5.050418376922607422e-01 7.109951376914978027e-01 7.206116318702697754e-01 4.453060328960418701e-01 1.566153526306152344e+00 -5.446007251739501953e-01 2.194620370864868164e-01 -9.363774210214614868e-02 -2.388521730899810791e-01 -1.594988465309143066e+00 1.049440979957580566e+00 -1.626847624778747559e+00 -1.369701474905014038e-01 -1.844847321510314941e+00 -2.099118471145629883e+00 -1.615376472473144531e+00 -1.182786583900451660e+00 9.284448027610778809e-01 6.649592518806457520e-01 1.214129209518432617e+00 2.509968042373657227e+00 -5.334956645965576172e-01 -3.314279794692993164e+00 -1.379888653755187988e+00 -1.528019070625305176e+00 1.176875829696655273e+00 -4.550553560256958008e-01 -2.012476921081542969e+00 8.745791316032409668e-01 -1.085559129714965820e+00 7.737305164337158203e-01 -4.908767342567443848e-01 -1.599856257438659668e+00 6.380220055580139160e-01 1.086455941200256348e+00 -2.235947549343109131e-01 -4.288695156574249268e-01 5.978037118911743164e-01 -6.084864735603332520e-01 3.276638031005859375e+00 4.153499305248260498e-01 8.330188393592834473e-01 -1.032505631446838379e+00 1.200471520423889160e+00 3.632147908210754395e-01 1.615834474563598633e+00 5.809677243232727051e-01 1.523566961288452148e+00 -4.642195105552673340e-01 -4.002478420734405518e-01 -7.818996310234069824e-01 1.096251130104064941e+00 3.133069753646850586e+00 -4.682873785495758057e-01 -5.216800570487976074e-01 1.158675625920295715e-01 1.016306161880493164e+00 -4.472258090972900391e-01 -2.288383960723876953e+00 1.071802735328674316e+00 -2.376546263694763184e-01 -1.074924506247043610e-02 2.708405554294586182e-01 1.428812891244888306e-01 -5.888247489929199219e-01 -1.637651324272155762e+00 -8.971052169799804688e-01 4.324238896369934082e-01 -3.004910349845886230e-01 2.963091433048248291e-01 -1.070503711700439453e+00 5.477215051651000977e-01 -8.170093894004821777e-01 9.832692742347717285e-01 6.018501520156860352e-01 1.301591515541076660e+00 -8.785997331142425537e-02 -1.472552299499511719e+00 -1.060851141810417175e-01 1.838865280151367188e+00 7.820547223091125488e-01 1.270073175430297852e+00 2.417638778686523438e+00 -2.437760353088378906e+00 -1.057907566428184509e-01 -9.022667407989501953e-01 -1.888001203536987305e+00 -1.388377785682678223e+00
0.000000000000000000e+00 0.000000000000000000e+00 0.000000000000000000e+00 0.000000000000000000e+00 0.000000000000000000e+00 0.000000000000000000e+00 0.000000000000000000e+00 0.000000000000000000e+00 0.000000000000000000e+00 0.000000000000000000e+00 0.000000000000000000e+00 0.000000000000000000e+00 0.000000000000000000e+00 0.000000000000000000e+00 0.000000000000000000e+00 0.000000000000000000e+00 0.000000000000000000e+00 0.000000000000000000e+00 0.000000000000000000e+00 0.000000000000000000e+00 0.000000000000000000e+00 0.000000000000000000e+00 0.000000000000000000e+00 0.000000000000000000e+00 0.000000000000000000e+00 0.000000000000000000e+00 0.000000000000000000e+00 0.000000000000000000e+00 0.000000000000000000e+00 0.000000000000000000e+00 0.000000000000000000e+00 0.000000000000000000e+00 0.000000000000000000e+00 0.000000000000000000e+00 0.000000000000000000e+00 0.000000000000000000e+00 0.000000000000000000e+00 0.000000000000000000e+00 0.000000000000000000e+00 0.000000000000000000e+00 0.000000000000000000e+00 0.000000000000000000e+00 0.000000000000000000e+00 0.000000000000000000e+00 0.000000000000000000e+00 0.000000000000000000e+00 0.000000000000000000e+00 0.000000000000000000e+00 0.000000000000000000e+00 0.000000000000000000e+00 0.000000000000000000e+00 0.000000000000000000e+00 0.000000000000000000e+00 0.000000000000000000e+00 0.000000000000000000e+00 0.000000000000000000e+00 0.000000000000000000e+00 0.000000000000000000e+00 0.000000000000000000e+00 0.000000000000000000e+00 0.000000000000000000e+00 0.000000000000000000e+00 0.000000000000000000e+00 0.000000000000000000e+00 0.000000000000000000e+00 0.000000000000000000e+00 0.000000000000000000e+00 0.000000000000000000e+00 0.000000000000000000e+00 0.000000000000000000e+00 0.000000000000000000e+00 0.000000000000000000e+00 0.000000000000000000e+00 0.000000000000000000e+00 0.000000000000000000e+00 0.000000000000000000e+00 0.000000000000000000e+00 0.000000000000000000e+00 0.000000000000000000e+00 0.000000000000000000e+00 0.000000000000000000e+00 0.000000000000000000e+00 0.000000000000000000e+00 0.000000000000000000e+00 0.000000000000000000e+00 0.000000000000000000e+00 0.000000000000000000e+00 0.000000000000000000e+00 0.000000000000000000e+00 0.000000000000000000e+00 0.000000000000000000e+00 0.000000000000000000e+00 0.000000000000000000e+00 0.000000000000000000e+00 0.000000000000000000e+00 0.000000000000000000e+00 0.000000000000000000e+00 0.000000000000000000e+00 0.000000000000000000e+00 0.000000000000000000e+00 0.000000000000000000e+00 0.000000000000000000e+00 0.000000000000000000e+00 0.000000000000000000e+00 0.000000000000000000e+00 0.000000000000000000e+00 0.000000000000000000e+00 0.000000000000000000e+00 0.000000000000000000e+00 0.000000000000000000e+00 0.000000000000000000e+00 0.000000000000000000e+00 0.000000000000000000e+00 0.000000000000000000e+00 0.000000000000000000e+00 0.000000000000000000e+00 0.000000000000000000e+00 0.000000000000000000e+00 0.000000000000000000e+00 0.000000000000000000e+00 0.000000000000000000e+00 0.000000000000000000e+00 0.000000000000000000e+00 0.000000000000000000e+00 0.000000000000000000e+00 0.000000000000000000e+00 0.000000000000000000e+00 0.000000000000000000e+00 0.000000000000000000e+00 0.000000000000000000e+00 0.000000000000000000e+00 0.000000000000000000e+00 0.000000000000000000e+00 0.000000000000000000e+00 0.000000000000000000e+00 0.000000000000000000e+00 0.000000000000000000e+00 0.000000000000000000e+00 0.000000000000000000e+00 0.000000000000000000e+00 0.000000000000000000e+00 0.000000000000000000e+00 0.000000000000000000e+00 0.000000000000000000e+00 0.000000000000000000e+00 0.000000000000000000e+00 0.000000000000000000e+00 0.000000000000000000e+00 0.000000000000000000e+00 0.000000000000000000e+00 0.000000000000000000e+00 0.000000000000000000e+00 0.000000000000000000e+00 0.000000000000000000e+00 0.000000000000000000e+00 0.000000000000000000e+00 0.000000000000000000e+00 0.000000000000000000e+00 0.000000000000000000e+00 0.000000000000000000e+00 0.000000000000000000e+00 0.000000000000000000e+00 0.000000000000000000e+00 0.000000000000000000e+00 0.000000000000000000e+00 0.000000000000000000e+00 0.000000000000000000e+00 0.000000000000000000e+00 0.000000000000000000e+00 0.000000000000000000e+00 0.000000000000000000e+00 0.000000000000000000e+00 0.000000000000000000e+00 0.000000000000000000e+00 0.000000000000000000e+00 0.000000000000000000e+00 0.000000000000000000e+00 0.000000000000000000e+00 0.000000000000000000e+00 0.000000000000000000e+00 0.000000000000000000e+00 0.000000000000000000e+00 0.000000000000000000e+00 0.000000000000000000e+00 0.000000000000000000e+00 0.000000000000000000e+00 0.000000000000000000e+00 0.000000000000000000e+00 0.000000000000000000e+00 0.000000000000000000e+00 0.000000000000000000e+00 0.000000000000000000e+00 0.000000000000000000e+00 0.000000000000000000e+00 0.000000000000000000e+00 0.000000000000000000e+00 0.000000000000000000e+00 0.000000000000000000e+00 0.000000000000000000e+00 0.000000000000000000e+00
1.684004545211791992e+00 -6.794978678226470947e-02 -6.588060855865478516e-01 1.052599072456359863e+00 -9.287261962890625000e-01 -5.604493021965026855e-01 -1.708147525787353516e+00 9.025022983551025391e-01 -1.543897110968828201e-02 7.461748123168945312e-01 -2.359596639871597290e-01 1.831854701042175293e+00 2.024207592010498047e+00 -1.117578268051147461e+00 1.484129190444946289e+00 1.050712108612060547e+00 -2.247605085372924805e+00 -7.960882186889648438e-01 -2.758427262306213379e-01 -4.054435789585113525e-01 -2.976904511451721191e-01 -1.101079359650611877e-01 -2.060420513153076172e+00 -7.778148055076599121e-01 -3.480767011642456055e-01 5.331973433494567871e-01 4.334138333797454834e-01 -1.445968151092529297e+00 9.401144385337829590e-01 -3.979927301406860352e-01 -3.768333792686462402e-01 9.703748226165771484e-01 2.185769319534301758e+00 1.236164569854736328e+00 2.179246664047241211e+00 9.621089100837707520e-01 -2.620411157608032227e+00 8.509937524795532227e-01 1.288246512413024902e+00 8.887777924537658691e-01 -1.544456481933593750e+00 -2.171503067016601562e+00 1.446806788444519043e-01 4.480973184108734131e-01 -1.433105111122131348e+00 -1.057537317276000977e+00 1.249669194221496582e+00 4.493133425712585449e-01 3.038760125637054443e-01 8.462828993797302246e-01 1.172999501228332520e+00 -1.262357950210571289e+00 -1.164684891700744629e+00 -1.433237433433532715e+00 -1.054627656936645508e+00 -3.104508161544799805e+00 -1.170382797718048096e-01 -7.998229861259460449e-01 1.883824169635772705e-01 1.731635779142379761e-01 2.543055415153503418e-01 3.188855051994323730e-01 -1.369551181793212891e+00 -9.088450670242309570e-02 -4.412108063697814941e-01 1.873717069625854492e+00 4.868011772632598877e-01 1.010438442230224609e+00 -8.528886437416076660e-01 -6.123118996620178223e-01 1.154806137084960938e+00 8.741196393966674805e-01 -1.773816943168640137e+00 -1.398812294006347656e+00 -7.411155849695205688e-03 1.485519483685493469e-02 -6.798195242881774902e-01 8.822551965713500977e-01 -1.641197323799133301e+00 -1.129192709922790527e+00 8.565341234207153320e-01 -2.711202621459960938e+00 1.722272872924804688e+00 -6.186496019363403320e-01 -2.593788862228393555e+00 -7.142637968063354492e-01 -2.181078791618347168e-01 6.096913293004035950e-02 -2.101168394088745117e+00 -1.329095005989074707e+00 -2.022297143936157227e+00 -1.342271119356155396e-01 8.055819272994995117e-01 -6.012137532234191895e-01 1.806366920471191406e+00 -3.575367033481597900e-01 -7.402382493019104004e-01 1.368056416511535645e+00 1.010425925254821777e+00 8.646872639656066895e-02 1.837768256664276123e-01 1.234126806259155273e+00 2.516669273376464844e+00 -1.522008657455444336e+00 -7.908625602722167969e-01 1.915060877799987793e+00 -1.334211587905883789e+00 1.796558737754821777e+00 1.624194383621215820e+00 -2.210136413574218750e+00 2.332398414611816406e+00 -2.032503366470336914e+00 8.788054585456848145e-01 -1.691182404756546021e-01 1.020048022270202637e+00 1.676500916481018066e+00 -3.704653382301330566e-01 -1.719429850578308105e+00 -7.056351006031036377e-02 -3.948889672756195068e-01 -6.540139913558959961e-01 6.565765738487243652e-01 -1.369844555854797363e+00 -3.375241518020629883e+00 -4.391670227050781250e-01 1.925711274147033691e+00 -3.998343646526336670e-01 -2.670301914215087891e+00 -1.008636832237243652e+00 -1.112669348716735840e+00 -2.132715940475463867e+00 2.222061395645141602e+00 -1.458128809928894043e+00 3.518507957458496094e+00 1.319847404956817627e-01 -1.155571490526199341e-01 3.530076444149017334e-01 2.192504167556762695e+00 1.164383053779602051e+00 -9.226605296134948730e-01 -7.508566379547119141e-01 1.131014704704284668e+00 -4.458251595497131348e-01 -1.633952140808105469e+00 -3.095916211605072021e-01 2.557381868362426758e+00 -4.066444933414459229e-01 -1.391381025314331055e+00 9.801255166530609131e-02 2.703577041625976562e+00 -3.329693794250488281e+00 -1.604750156402587891e+00 -3.144687712192535400e-01 6.436146497726440430e-01 1.329018115997314453e+00 -1.585374593734741211e+00 -9.090955257415771484e-01 2.084225893020629883e+00 -2.719643592834472656e+00 -5.369430780410766602e-01 -2.192465782165527344e+00 3.195859491825103760e-01 -4.038377404212951660e-01 -7.414067983627319336e-01 2.457415103912353516e+00 -1.147580742835998535e-01 -1.458434581756591797e+00 1.355988502502441406e+00 -1.049951314926147461e+00 -2.041730642318725586e+00 -3.397049427032470703e+00 2.345978498458862305e+00 -6.613952517509460449e-01 -2.058563947677612305e+00 2.332385540008544922e+00 -1.627207398414611816e+00 -3.294475004076957703e-02 -3.778792321681976318e-01 -1.424629092216491699e+00 1.509460449218750000e+00 -9.722043871879577637e-01 -1.419921994209289551e+00 3.355618119239807129e-01 1.085484027862548828e+00 8.742032647132873535e-01 -2.079823970794677734e+00 1.960127115249633789e+00 1.027585268020629883e+00 -1.774682879447937012e+00 8.055109381675720215e-01 -2.611186169087886810e-02 -9.122086763381958008e-01 -2.901913881301879883e+00 -4.213638901710510254e-01 -8.614586591720581055e-01 -2.968640327453613281e-01 -2.240185976028442383e+00 3.410650491714477539e-01 1.494754076004028320e+00 2.360750675201416016e+00
1.281728982925415039e+00 1.558799594640731812e-01 -1.390707373619079590e+00 -5.160510540008544922e-01 1.697150468826293945e-01 1.794703722000122070e+00 7.237539291381835938e-01 1.500222921371459961e+00 1.712348222732543945e+00 1.540985107421875000e+00 2.725548148155212402e-01 -4.241799935698509216e-02 -3.359104394912719727e+00 -2.506363868713378906e+00 1.755582571029663086e+00 -9.765049070119857788e-02 -3.951013684272766113e-01 -9.865530133247375488e-01 -1.405349969863891602e+00 1.586425662040710449e+00 -1.984376549720764160e+00 8.158418536186218262e-01 1.283664345741271973e+00 1.017678260803222656e+00 1.444673299789428711e+00 -9.138728976249694824e-01 1.567739993333816528e-01 -4.998483955860137939e-01 -1.343046069145202637e+00 -3.108923673629760742e+00 1.113758921623229980e+00 -4.721710681915283203e-01 7.317354679107666016e-01 2.630419969558715820e+00 -9.901137351989746094e-01 -1.452869415283203125e+00 -3.613021671772003174e-01 7.220120429992675781e-01 4.416976869106292725e-01 -5.140076279640197754e-01 -1.413266181945800781e+00 1.175915122032165527e+00 2.791064679622650146e-01 -2.817079782485961914e+00 -8.152109384536743164e-02 3.359496593475341797e-01 -1.907221436500549316e+00 1.336039453744888306e-01 6.024826169013977051e-01 -5.863187909126281738e-01 2.419233560562133789e+00 -9.686883687973022461e-01 -9.833753108978271484e-01 2.542513906955718994e-01 5.545014142990112305e-01 2.134294033050537109e+00 -9.376897215843200684e-01 -9.471542239189147949e-01 5.299319624900817871e-01 -1.743630170822143555e+00 -1.356952428817749023e+00 -3.464834213256835938e+00 -7.971621155738830566e-01 1.391251444816589355e+00 -3.130308866500854492e+00 3.308923959732055664e+00 -4.617758989334106445e-01 8.939763307571411133e-01 1.887993454933166504e+00 -3.453144133090972900e-01 2.751846313476562500e+00 1.687274098396301270e+00 5.614643096923828125e-01 -2.344304881989955902e-02 -2.506946921348571777e-01 -1.910025835037231445e+00 4.960773587226867676e-01 1.160810291767120361e-01 6.012230515480041504e-01 1.276965588331222534e-01 -5.301712751388549805e-01 -5.081910490989685059e-01 1.331912040710449219e+00 1.139135137200355530e-01 -1.641848325729370117e+00 -1.641661286354064941e+00 2.486259460449218750e+00 -3.919259011745452881e-01 -1.550276279449462891e+00 -3.577914237976074219e-01 -8.716256618499755859e-01 6.785359382629394531e-01 -2.964951395988464355e-01 -1.547820925712585449e+00 1.384709119796752930e+00 1.414750218391418457e+00 3.504488229751586914e+00 -1.555122733116149902e-01 -6.303726434707641602e-01 -4.292764663696289062e-01 -7.730891704559326172e-01 6.469883322715759277e-01 1.284795999526977539e+00 2.040777504444122314e-01 -6.329762935638427734e-01 5.865179300308227539e-01 -5.314220786094665527e-01 1.422519445419311523e+00 2.043139696121215820e+00 -1.146563410758972168e+00 -1.785877108573913574e+00 1.156056672334671021e-01 8.444954752922058105e-01 2.087338447570800781e+00 -1.563921451568603516e+00 -3.347270190715789795e-01 2.171465754508972168e-01 -1.122932076454162598e+00 1.800040364265441895e+00 -6.104376316070556641e-01 -7.364075183868408203e-01 -1.436608672142028809e+00 -1.378734707832336426e+00 -9.679630398750305176e-01 3.281424045562744141e-01 -6.596650481224060059e-01 2.296275615692138672e+00 5.063736438751220703e-01 1.398097991943359375e+00 2.418756008148193359e+00 3.018461763858795166e-01 -5.475018545985221863e-02 7.500261664390563965e-01 6.646753549575805664e-01 -1.734551548957824707e+00 5.663868188858032227e-01 1.234071612358093262e+00 6.444938182830810547e-01 -1.394018888473510742e+00 6.782315373420715332e-01 1.351074695587158203e+00 -3.692545294761657715e-01 -1.922090768814086914e+00 -1.056881308555603027e+00 -1.233006596565246582e+00 4.222725629806518555e-01 -3.281919956207275391e-01 -2.771300554275512695e+00 2.464639395475387573e-01 -1.061125516891479492e+00 -7.911921739578247070e-01 1.584401488304138184e+00 1.339482784271240234e+00 -1.522734612226486206e-01 3.182279169559478760e-01 -1.186103448271751404e-01 -1.405564099550247192e-01 6.008960008621215820e-01 -2.335366308689117432e-01 -1.124951601028442383e+00 -5.774923563003540039e-01 -1.072696924209594727e+00 -2.661164999008178711e-01 -4.263253688812255859e+00 -3.271590709686279297e+00 -1.457079887390136719e+00 2.937755346298217773e+00 -7.722827196121215820e-01 1.890841841697692871e+00 7.996545732021331787e-02 -1.885331153869628906e+00 6.765901297330856323e-02 -1.495597958564758301e+00 -1.173964738845825195e+00 1.099721550941467285e+00 -4.318813681602478027e-01 -2.473686695098876953e+00 -9.542046785354614258e-01 2.492638826370239258e+00 8.026295304298400879e-01 8.032202124595642090e-01 3.899881616234779358e-02 1.249576881527900696e-01 1.335222572088241577e-01 6.133367419242858887e-01 -5.540300607681274414e-01 -7.183216810226440430e-01 -1.523566246032714844e+00 -5.086214840412139893e-02 2.942864656448364258e+00 -3.634484410285949707e-01 -1.608128994703292847e-01 -1.922932744026184082e+00 -6.335591077804565430e-01 -6.672949194908142090e-01 5.911191701889038086e-01 -8.292915225028991699e-01 -1.890801429748535156e+00 -2.297260522842407227e+00 -1.374738812446594238e+00
